digraph Tree {
node [shape=box] ;
0 [label="Hardness <= 0.4\nmse = 0.2\nsamples = 1540\nvalue = 0.4"] ;
1 [label="Hardness <= 0.2\nmse = 0.2\nsamples = 220\nvalue = 0.5"] ;
0 -> 1 [labeldistance=2.5, labelangle=45, headlabel="True"] ;
2 [label="Turbidity <= 0.2\nmse = 0.0\nsamples = 11\nvalue = 1.0"] ;
1 -> 2 ;
3 [label="mse = 0.0\nsamples = 1\nvalue = 0.0"] ;
2 -> 3 ;
4 [label="mse = 0.0\nsamples = 10\nvalue = 1.0"] ;
2 -> 4 ;
5 [label="Hardness <= 0.4\nmse = 0.2\nsamples = 209\nvalue = 0.5"] ;
1 -> 5 ;
6 [label="Hardness <= 0.3\nmse = 0.2\nsamples = 138\nvalue = 0.4"] ;
5 -> 6 ;
7 [label="Hardness <= 0.2\nmse = 0.2\nsamples = 62\nvalue = 0.5"] ;
6 -> 7 ;
8 [label="mse = 0.0\nsamples = 4\nvalue = 0.0"] ;
7 -> 8 ;
9 [label="Solids <= 0.2\nmse = 0.2\nsamples = 58\nvalue = 0.6"] ;
7 -> 9 ;
10 [label="mse = 0.0\nsamples = 7\nvalue = 1.0"] ;
9 -> 10 ;
11 [label="Trihalomethanes <= 0.3\nmse = 0.2\nsamples = 51\nvalue = 0.5"] ;
9 -> 11 ;
12 [label="mse = 0.0\nsamples = 3\nvalue = 1.0"] ;
11 -> 12 ;
13 [label="Sulfate <= 0.7\nmse = 0.2\nsamples = 48\nvalue = 0.5"] ;
11 -> 13 ;
14 [label="ph <= 0.6\nmse = 0.2\nsamples = 32\nvalue = 0.4"] ;
13 -> 14 ;
15 [label="Organic_carbon <= 0.5\nmse = 0.1\nsamples = 19\nvalue = 0.1"] ;
14 -> 15 ;
16 [label="mse = 0.0\nsamples = 12\nvalue = 0.0"] ;
15 -> 16 ;
17 [label="Sulfate <= 0.5\nmse = 0.2\nsamples = 7\nvalue = 0.2"] ;
15 -> 17 ;
18 [label="mse = 0.0\nsamples = 2\nvalue = 1.0"] ;
17 -> 18 ;
19 [label="mse = 0.0\nsamples = 5\nvalue = 0.0"] ;
17 -> 19 ;
20 [label="Solids <= 0.4\nmse = 0.2\nsamples = 13\nvalue = 0.7"] ;
14 -> 20 ;
21 [label="Hardness <= 0.3\nmse = 0.2\nsamples = 5\nvalue = 0.3"] ;
20 -> 21 ;
22 [label="mse = 0.0\nsamples = 3\nvalue = 0.0"] ;
21 -> 22 ;
23 [label="mse = 0.0\nsamples = 2\nvalue = 1.0"] ;
21 -> 23 ;
24 [label="Trihalomethanes <= 0.6\nmse = 0.1\nsamples = 8\nvalue = 0.9"] ;
20 -> 24 ;
25 [label="mse = 0.0\nsamples = 6\nvalue = 1.0"] ;
24 -> 25 ;
26 [label="Turbidity <= 0.4\nmse = 0.2\nsamples = 2\nvalue = 0.7"] ;
24 -> 26 ;
27 [label="mse = 0.0\nsamples = 1\nvalue = 1.0"] ;
26 -> 27 ;
28 [label="mse = 0.0\nsamples = 1\nvalue = 0.0"] ;
26 -> 28 ;
29 [label="Sulfate <= 0.9\nmse = 0.2\nsamples = 16\nvalue = 0.7"] ;
13 -> 29 ;
30 [label="Hardness <= 0.3\nmse = 0.1\nsamples = 11\nvalue = 0.9"] ;
29 -> 30 ;
31 [label="mse = 0.0\nsamples = 9\nvalue = 1.0"] ;
30 -> 31 ;
32 [label="mse = 0.0\nsamples = 2\nvalue = 0.0"] ;
30 -> 32 ;
33 [label="ph <= 0.2\nmse = 0.2\nsamples = 5\nvalue = 0.3"] ;
29 -> 33 ;
34 [label="mse = 0.0\nsamples = 1\nvalue = 1.0"] ;
33 -> 34 ;
35 [label="mse = 0.0\nsamples = 4\nvalue = 0.0"] ;
33 -> 35 ;
36 [label="Chloramines <= 0.3\nmse = 0.2\nsamples = 76\nvalue = 0.3"] ;
6 -> 36 ;
37 [label="mse = 0.0\nsamples = 3\nvalue = 1.0"] ;
36 -> 37 ;
38 [label="Organic_carbon <= 0.3\nmse = 0.2\nsamples = 73\nvalue = 0.3"] ;
36 -> 38 ;
39 [label="Hardness <= 0.4\nmse = 0.2\nsamples = 4\nvalue = 0.8"] ;
38 -> 39 ;
40 [label="mse = 0.0\nsamples = 3\nvalue = 1.0"] ;
39 -> 40 ;
41 [label="mse = 0.0\nsamples = 1\nvalue = 0.0"] ;
39 -> 41 ;
42 [label="Turbidity <= 0.4\nmse = 0.2\nsamples = 69\nvalue = 0.2"] ;
38 -> 42 ;
43 [label="Trihalomethanes <= 0.3\nmse = 0.1\nsamples = 26\nvalue = 0.1"] ;
42 -> 43 ;
44 [label="Organic_carbon <= 0.4\nmse = 0.2\nsamples = 3\nvalue = 0.7"] ;
43 -> 44 ;
45 [label="mse = 0.0\nsamples = 2\nvalue = 1.0"] ;
44 -> 45 ;
46 [label="mse = 0.0\nsamples = 1\nvalue = 0.0"] ;
44 -> 46 ;
47 [label="Solids <= 0.6\nmse = 0.0\nsamples = 23\nvalue = 0.0"] ;
43 -> 47 ;
48 [label="mse = 0.0\nsamples = 22\nvalue = 0.0"] ;
47 -> 48 ;
49 [label="mse = 0.0\nsamples = 1\nvalue = 1.0"] ;
47 -> 49 ;
50 [label="Conductivity <= 0.6\nmse = 0.2\nsamples = 43\nvalue = 0.3"] ;
42 -> 50 ;
51 [label="Turbidity <= 0.5\nmse = 0.2\nsamples = 39\nvalue = 0.3"] ;
50 -> 51 ;
52 [label="mse = 0.0\nsamples = 2\nvalue = 1.0"] ;
51 -> 52 ;
53 [label="Hardness <= 0.4\nmse = 0.2\nsamples = 37\nvalue = 0.2"] ;
51 -> 53 ;
54 [label="Sulfate <= 0.8\nmse = 0.1\nsamples = 19\nvalue = 0.1"] ;
53 -> 54 ;
55 [label="Organic_carbon <= 0.6\nmse = 0.0\nsamples = 18\nvalue = 0.0"] ;
54 -> 55 ;
56 [label="mse = 0.0\nsamples = 17\nvalue = 0.0"] ;
55 -> 56 ;
57 [label="mse = 0.0\nsamples = 1\nvalue = 1.0"] ;
55 -> 57 ;
58 [label="mse = 0.0\nsamples = 1\nvalue = 1.0"] ;
54 -> 58 ;
59 [label="Chloramines <= 0.7\nmse = 0.2\nsamples = 18\nvalue = 0.4"] ;
53 -> 59 ;
60 [label="Hardness <= 0.4\nmse = 0.2\nsamples = 15\nvalue = 0.3"] ;
59 -> 60 ;
61 [label="mse = 0.0\nsamples = 2\nvalue = 1.0"] ;
60 -> 61 ;
62 [label="Sulfate <= 0.8\nmse = 0.2\nsamples = 13\nvalue = 0.2"] ;
60 -> 62 ;
63 [label="ph <= 0.5\nmse = 0.1\nsamples = 12\nvalue = 0.2"] ;
62 -> 63 ;
64 [label="Organic_carbon <= 0.4\nmse = 0.1\nsamples = 11\nvalue = 0.1"] ;
63 -> 64 ;
65 [label="Organic_carbon <= 0.3\nmse = 0.2\nsamples = 2\nvalue = 0.5"] ;
64 -> 65 ;
66 [label="mse = 0.0\nsamples = 1\nvalue = 0.0"] ;
65 -> 66 ;
67 [label="mse = 0.0\nsamples = 1\nvalue = 1.0"] ;
65 -> 67 ;
68 [label="ph <= 0.4\nmse = 0.1\nsamples = 9\nvalue = 0.1"] ;
64 -> 68 ;
69 [label="mse = 0.0\nsamples = 7\nvalue = 0.0"] ;
68 -> 69 ;
70 [label="Conductivity <= 0.4\nmse = 0.2\nsamples = 2\nvalue = 0.2"] ;
68 -> 70 ;
71 [label="mse = 0.0\nsamples = 1\nvalue = 0.0"] ;
70 -> 71 ;
72 [label="mse = 0.0\nsamples = 1\nvalue = 1.0"] ;
70 -> 72 ;
73 [label="mse = 0.0\nsamples = 1\nvalue = 1.0"] ;
63 -> 73 ;
74 [label="mse = 0.0\nsamples = 1\nvalue = 1.0"] ;
62 -> 74 ;
75 [label="mse = 0.0\nsamples = 3\nvalue = 1.0"] ;
59 -> 75 ;
76 [label="mse = 0.0\nsamples = 4\nvalue = 1.0"] ;
50 -> 76 ;
77 [label="Solids <= 0.3\nmse = 0.2\nsamples = 71\nvalue = 0.6"] ;
5 -> 77 ;
78 [label="ph <= 0.5\nmse = 0.2\nsamples = 28\nvalue = 0.4"] ;
77 -> 78 ;
79 [label="Chloramines <= 0.5\nmse = 0.2\nsamples = 21\nvalue = 0.2"] ;
78 -> 79 ;
80 [label="Solids <= 0.3\nmse = 0.2\nsamples = 5\nvalue = 0.7"] ;
79 -> 80 ;
81 [label="mse = 0.0\nsamples = 3\nvalue = 1.0"] ;
80 -> 81 ;
82 [label="mse = 0.0\nsamples = 2\nvalue = 0.0"] ;
80 -> 82 ;
83 [label="Hardness <= 0.4\nmse = 0.1\nsamples = 16\nvalue = 0.1"] ;
79 -> 83 ;
84 [label="mse = 0.0\nsamples = 1\nvalue = 1.0"] ;
83 -> 84 ;
85 [label="Conductivity <= 0.7\nmse = 0.1\nsamples = 15\nvalue = 0.1"] ;
83 -> 85 ;
86 [label="Chloramines <= 0.5\nmse = 0.0\nsamples = 14\nvalue = 0.0"] ;
85 -> 86 ;
87 [label="Sulfate <= 0.6\nmse = 0.2\nsamples = 4\nvalue = 0.2"] ;
86 -> 87 ;
88 [label="mse = 0.0\nsamples = 3\nvalue = 0.0"] ;
87 -> 88 ;
89 [label="mse = 0.0\nsamples = 1\nvalue = 1.0"] ;
87 -> 89 ;
90 [label="mse = 0.0\nsamples = 10\nvalue = 0.0"] ;
86 -> 90 ;
91 [label="mse = 0.0\nsamples = 1\nvalue = 1.0"] ;
85 -> 91 ;
92 [label="Sulfate <= 0.8\nmse = 0.2\nsamples = 7\nvalue = 0.8"] ;
78 -> 92 ;
93 [label="mse = 0.0\nsamples = 5\nvalue = 1.0"] ;
92 -> 93 ;
94 [label="mse = 0.0\nsamples = 2\nvalue = 0.0"] ;
92 -> 94 ;
95 [label="Sulfate <= 0.8\nmse = 0.2\nsamples = 43\nvalue = 0.8"] ;
77 -> 95 ;
96 [label="Solids <= 0.9\nmse = 0.1\nsamples = 38\nvalue = 0.8"] ;
95 -> 96 ;
97 [label="Chloramines <= 0.2\nmse = 0.1\nsamples = 37\nvalue = 0.9"] ;
96 -> 97 ;
98 [label="mse = 0.0\nsamples = 1\nvalue = 0.0"] ;
97 -> 98 ;
99 [label="Conductivity <= 0.7\nmse = 0.1\nsamples = 36\nvalue = 0.9"] ;
97 -> 99 ;
100 [label="Organic_carbon <= 0.7\nmse = 0.1\nsamples = 35\nvalue = 0.9"] ;
99 -> 100 ;
101 [label="Organic_carbon <= 0.4\nmse = 0.1\nsamples = 34\nvalue = 0.9"] ;
100 -> 101 ;
102 [label="ph <= 0.4\nmse = 0.2\nsamples = 9\nvalue = 0.8"] ;
101 -> 102 ;
103 [label="mse = 0.0\nsamples = 2\nvalue = 0.0"] ;
102 -> 103 ;
104 [label="Organic_carbon <= 0.4\nmse = 0.1\nsamples = 7\nvalue = 0.9"] ;
102 -> 104 ;
105 [label="Organic_carbon <= 0.4\nmse = 0.1\nsamples = 6\nvalue = 0.9"] ;
104 -> 105 ;
106 [label="mse = 0.0\nsamples = 4\nvalue = 1.0"] ;
105 -> 106 ;
107 [label="Solids <= 0.4\nmse = 0.2\nsamples = 2\nvalue = 0.8"] ;
105 -> 107 ;
108 [label="mse = 0.0\nsamples = 1\nvalue = 1.0"] ;
107 -> 108 ;
109 [label="mse = 0.0\nsamples = 1\nvalue = 0.0"] ;
107 -> 109 ;
110 [label="mse = 0.0\nsamples = 1\nvalue = 0.0"] ;
104 -> 110 ;
111 [label="Sulfate <= 0.8\nmse = 0.0\nsamples = 25\nvalue = 1.0"] ;
101 -> 111 ;
112 [label="mse = 0.0\nsamples = 22\nvalue = 1.0"] ;
111 -> 112 ;
113 [label="Conductivity <= 0.5\nmse = 0.2\nsamples = 3\nvalue = 0.7"] ;
111 -> 113 ;
114 [label="mse = 0.0\nsamples = 2\nvalue = 1.0"] ;
113 -> 114 ;
115 [label="mse = 0.0\nsamples = 1\nvalue = 0.0"] ;
113 -> 115 ;
116 [label="mse = 0.0\nsamples = 1\nvalue = 0.0"] ;
100 -> 116 ;
117 [label="mse = 0.0\nsamples = 1\nvalue = 0.0"] ;
99 -> 117 ;
118 [label="mse = 0.0\nsamples = 1\nvalue = 0.0"] ;
96 -> 118 ;
119 [label="mse = 0.0\nsamples = 5\nvalue = 0.0"] ;
95 -> 119 ;
120 [label="Sulfate <= 0.9\nmse = 0.2\nsamples = 1320\nvalue = 0.4"] ;
0 -> 120 [labeldistance=2.5, labelangle=-45, headlabel="False"] ;
121 [label="Hardness <= 0.9\nmse = 0.2\nsamples = 1300\nvalue = 0.4"] ;
120 -> 121 ;
122 [label="Chloramines <= 0.6\nmse = 0.2\nsamples = 1290\nvalue = 0.3"] ;
121 -> 122 ;
123 [label="ph <= 0.6\nmse = 0.2\nsamples = 779\nvalue = 0.3"] ;
122 -> 123 ;
124 [label="Hardness <= 0.6\nmse = 0.2\nsamples = 621\nvalue = 0.4"] ;
123 -> 124 ;
125 [label="Solids <= 0.5\nmse = 0.2\nsamples = 413\nvalue = 0.3"] ;
124 -> 125 ;
126 [label="Sulfate <= 0.7\nmse = 0.2\nsamples = 371\nvalue = 0.3"] ;
125 -> 126 ;
127 [label="Chloramines <= 0.5\nmse = 0.2\nsamples = 195\nvalue = 0.3"] ;
126 -> 127 ;
128 [label="Organic_carbon <= 0.5\nmse = 0.2\nsamples = 130\nvalue = 0.4"] ;
127 -> 128 ;
129 [label="Chloramines <= 0.3\nmse = 0.2\nsamples = 80\nvalue = 0.3"] ;
128 -> 129 ;
130 [label="Conductivity <= 0.5\nmse = 0.2\nsamples = 6\nvalue = 0.7"] ;
129 -> 130 ;
131 [label="Conductivity <= 0.4\nmse = 0.2\nsamples = 4\nvalue = 0.2"] ;
130 -> 131 ;
132 [label="mse = 0.0\nsamples = 1\nvalue = 1.0"] ;
131 -> 132 ;
133 [label="mse = 0.0\nsamples = 3\nvalue = 0.0"] ;
131 -> 133 ;
134 [label="mse = 0.0\nsamples = 2\nvalue = 1.0"] ;
130 -> 134 ;
135 [label="Organic_carbon <= 0.2\nmse = 0.2\nsamples = 74\nvalue = 0.3"] ;
129 -> 135 ;
136 [label="mse = 0.0\nsamples = 1\nvalue = 1.0"] ;
135 -> 136 ;
137 [label="Solids <= 0.3\nmse = 0.2\nsamples = 73\nvalue = 0.2"] ;
135 -> 137 ;
138 [label="Organic_carbon <= 0.5\nmse = 0.1\nsamples = 31\nvalue = 0.1"] ;
137 -> 138 ;
139 [label="mse = 0.0\nsamples = 26\nvalue = 0.0"] ;
138 -> 139 ;
140 [label="Conductivity <= 0.5\nmse = 0.2\nsamples = 5\nvalue = 0.6"] ;
138 -> 140 ;
141 [label="mse = 0.0\nsamples = 3\nvalue = 1.0"] ;
140 -> 141 ;
142 [label="mse = 0.0\nsamples = 2\nvalue = 0.0"] ;
140 -> 142 ;
143 [label="ph <= 0.5\nmse = 0.2\nsamples = 42\nvalue = 0.3"] ;
137 -> 143 ;
144 [label="Trihalomethanes <= 0.4\nmse = 0.1\nsamples = 20\nvalue = 0.2"] ;
143 -> 144 ;
145 [label="Hardness <= 0.5\nmse = 0.2\nsamples = 4\nvalue = 0.8"] ;
144 -> 145 ;
146 [label="mse = 0.0\nsamples = 1\nvalue = 0.0"] ;
145 -> 146 ;
147 [label="mse = 0.0\nsamples = 3\nvalue = 1.0"] ;
145 -> 147 ;
148 [label="Hardness <= 0.4\nmse = 0.1\nsamples = 16\nvalue = 0.1"] ;
144 -> 148 ;
149 [label="mse = 0.0\nsamples = 1\nvalue = 1.0"] ;
148 -> 149 ;
150 [label="Chloramines <= 0.4\nmse = 0.0\nsamples = 15\nvalue = 0.0"] ;
148 -> 150 ;
151 [label="mse = 0.0\nsamples = 1\nvalue = 1.0"] ;
150 -> 151 ;
152 [label="mse = 0.0\nsamples = 14\nvalue = 0.0"] ;
150 -> 152 ;
153 [label="Chloramines <= 0.4\nmse = 0.2\nsamples = 22\nvalue = 0.5"] ;
143 -> 153 ;
154 [label="Conductivity <= 0.3\nmse = 0.2\nsamples = 12\nvalue = 0.3"] ;
153 -> 154 ;
155 [label="mse = 0.0\nsamples = 2\nvalue = 1.0"] ;
154 -> 155 ;
156 [label="Trihalomethanes <= 0.6\nmse = 0.2\nsamples = 10\nvalue = 0.2"] ;
154 -> 156 ;
157 [label="Turbidity <= 0.5\nmse = 0.2\nsamples = 4\nvalue = 0.5"] ;
156 -> 157 ;
158 [label="ph <= 0.5\nmse = 0.2\nsamples = 3\nvalue = 0.2"] ;
157 -> 158 ;
159 [label="mse = 0.0\nsamples = 2\nvalue = 0.0"] ;
158 -> 159 ;
160 [label="mse = 0.0\nsamples = 1\nvalue = 1.0"] ;
158 -> 160 ;
161 [label="mse = 0.0\nsamples = 1\nvalue = 1.0"] ;
157 -> 161 ;
162 [label="mse = 0.0\nsamples = 6\nvalue = 0.0"] ;
156 -> 162 ;
163 [label="Trihalomethanes <= 0.4\nmse = 0.1\nsamples = 10\nvalue = 0.9"] ;
153 -> 163 ;
164 [label="mse = 0.0\nsamples = 1\nvalue = 0.0"] ;
163 -> 164 ;
165 [label="mse = 0.0\nsamples = 9\nvalue = 1.0"] ;
163 -> 165 ;
166 [label="Solids <= 0.4\nmse = 0.2\nsamples = 50\nvalue = 0.6"] ;
128 -> 166 ;
167 [label="Conductivity <= 0.4\nmse = 0.2\nsamples = 44\nvalue = 0.6"] ;
166 -> 167 ;
168 [label="Solids <= 0.3\nmse = 0.2\nsamples = 14\nvalue = 0.3"] ;
167 -> 168 ;
169 [label="Sulfate <= 0.7\nmse = 0.2\nsamples = 7\nvalue = 0.7"] ;
168 -> 169 ;
170 [label="Hardness <= 0.5\nmse = 0.1\nsamples = 5\nvalue = 0.9"] ;
169 -> 170 ;
171 [label="mse = 0.0\nsamples = 1\nvalue = 0.0"] ;
170 -> 171 ;
172 [label="mse = 0.0\nsamples = 4\nvalue = 1.0"] ;
170 -> 172 ;
173 [label="mse = 0.0\nsamples = 2\nvalue = 0.0"] ;
169 -> 173 ;
174 [label="mse = 0.0\nsamples = 7\nvalue = 0.0"] ;
168 -> 174 ;
175 [label="Conductivity <= 0.6\nmse = 0.2\nsamples = 30\nvalue = 0.8"] ;
167 -> 175 ;
176 [label="ph <= 0.6\nmse = 0.1\nsamples = 25\nvalue = 0.8"] ;
175 -> 176 ;
177 [label="Hardness <= 0.5\nmse = 0.1\nsamples = 24\nvalue = 0.9"] ;
176 -> 177 ;
178 [label="Organic_carbon <= 0.5\nmse = 0.2\nsamples = 14\nvalue = 0.8"] ;
177 -> 178 ;
179 [label="mse = 0.0\nsamples = 4\nvalue = 1.0"] ;
178 -> 179 ;
180 [label="Trihalomethanes <= 0.5\nmse = 0.2\nsamples = 10\nvalue = 0.5"] ;
178 -> 180 ;
181 [label="mse = 0.0\nsamples = 4\nvalue = 0.0"] ;
180 -> 181 ;
182 [label="Sulfate <= 0.3\nmse = 0.2\nsamples = 6\nvalue = 0.8"] ;
180 -> 182 ;
183 [label="mse = 0.0\nsamples = 2\nvalue = 0.0"] ;
182 -> 183 ;
184 [label="mse = 0.0\nsamples = 4\nvalue = 1.0"] ;
182 -> 184 ;
185 [label="mse = 0.0\nsamples = 10\nvalue = 1.0"] ;
177 -> 185 ;
186 [label="mse = 0.0\nsamples = 1\nvalue = 0.0"] ;
176 -> 186 ;
187 [label="Sulfate <= 0.7\nmse = 0.2\nsamples = 5\nvalue = 0.2"] ;
175 -> 187 ;
188 [label="mse = 0.0\nsamples = 4\nvalue = 0.0"] ;
187 -> 188 ;
189 [label="mse = 0.0\nsamples = 1\nvalue = 1.0"] ;
187 -> 189 ;
190 [label="Hardness <= 0.5\nmse = 0.1\nsamples = 6\nvalue = 0.1"] ;
166 -> 190 ;
191 [label="mse = 0.0\nsamples = 1\nvalue = 1.0"] ;
190 -> 191 ;
192 [label="mse = 0.0\nsamples = 5\nvalue = 0.0"] ;
190 -> 192 ;
193 [label="ph <= 0.5\nmse = 0.1\nsamples = 65\nvalue = 0.2"] ;
127 -> 193 ;
194 [label="Turbidity <= 0.6\nmse = 0.1\nsamples = 50\nvalue = 0.1"] ;
193 -> 194 ;
195 [label="Organic_carbon <= 0.7\nmse = 0.0\nsamples = 36\nvalue = 0.0"] ;
194 -> 195 ;
196 [label="Organic_carbon <= 0.6\nmse = 0.0\nsamples = 35\nvalue = 0.0"] ;
195 -> 196 ;
197 [label="mse = 0.0\nsamples = 30\nvalue = 0.0"] ;
196 -> 197 ;
198 [label="ph <= 0.2\nmse = 0.2\nsamples = 5\nvalue = 0.2"] ;
196 -> 198 ;
199 [label="mse = 0.0\nsamples = 1\nvalue = 1.0"] ;
198 -> 199 ;
200 [label="mse = 0.0\nsamples = 4\nvalue = 0.0"] ;
198 -> 200 ;
201 [label="mse = 0.0\nsamples = 1\nvalue = 1.0"] ;
195 -> 201 ;
202 [label="Turbidity <= 0.6\nmse = 0.2\nsamples = 14\nvalue = 0.3"] ;
194 -> 202 ;
203 [label="mse = 0.0\nsamples = 4\nvalue = 1.0"] ;
202 -> 203 ;
204 [label="Organic_carbon <= 0.4\nmse = 0.1\nsamples = 10\nvalue = 0.1"] ;
202 -> 204 ;
205 [label="mse = 0.0\nsamples = 1\nvalue = 1.0"] ;
204 -> 205 ;
206 [label="mse = 0.0\nsamples = 9\nvalue = 0.0"] ;
204 -> 206 ;
207 [label="ph <= 0.6\nmse = 0.2\nsamples = 15\nvalue = 0.4"] ;
193 -> 207 ;
208 [label="Conductivity <= 0.6\nmse = 0.1\nsamples = 5\nvalue = 0.9"] ;
207 -> 208 ;
209 [label="mse = 0.0\nsamples = 4\nvalue = 1.0"] ;
208 -> 209 ;
210 [label="mse = 0.0\nsamples = 1\nvalue = 0.0"] ;
208 -> 210 ;
211 [label="Organic_carbon <= 0.4\nmse = 0.2\nsamples = 10\nvalue = 0.2"] ;
207 -> 211 ;
212 [label="mse = 0.0\nsamples = 5\nvalue = 0.0"] ;
211 -> 212 ;
213 [label="Chloramines <= 0.5\nmse = 0.2\nsamples = 5\nvalue = 0.5"] ;
211 -> 213 ;
214 [label="mse = 0.0\nsamples = 2\nvalue = 0.0"] ;
213 -> 214 ;
215 [label="mse = 0.0\nsamples = 3\nvalue = 1.0"] ;
213 -> 215 ;
216 [label="ph <= 0.5\nmse = 0.2\nsamples = 176\nvalue = 0.2"] ;
126 -> 216 ;
217 [label="ph <= 0.5\nmse = 0.2\nsamples = 123\nvalue = 0.3"] ;
216 -> 217 ;
218 [label="Trihalomethanes <= 0.8\nmse = 0.2\nsamples = 82\nvalue = 0.2"] ;
217 -> 218 ;
219 [label="Chloramines <= 0.3\nmse = 0.1\nsamples = 81\nvalue = 0.2"] ;
218 -> 219 ;
220 [label="mse = 0.0\nsamples = 2\nvalue = 1.0"] ;
219 -> 220 ;
221 [label="Hardness <= 0.6\nmse = 0.1\nsamples = 79\nvalue = 0.1"] ;
219 -> 221 ;
222 [label="Turbidity <= 0.5\nmse = 0.1\nsamples = 74\nvalue = 0.1"] ;
221 -> 222 ;
223 [label="Chloramines <= 0.3\nmse = 0.1\nsamples = 40\nvalue = 0.1"] ;
222 -> 223 ;
224 [label="mse = 0.0\nsamples = 1\nvalue = 1.0"] ;
223 -> 224 ;
225 [label="Sulfate <= 0.7\nmse = 0.1\nsamples = 39\nvalue = 0.1"] ;
223 -> 225 ;
226 [label="Turbidity <= 0.4\nmse = 0.2\nsamples = 6\nvalue = 0.2"] ;
225 -> 226 ;
227 [label="mse = 0.0\nsamples = 2\nvalue = 1.0"] ;
226 -> 227 ;
228 [label="mse = 0.0\nsamples = 4\nvalue = 0.0"] ;
226 -> 228 ;
229 [label="Chloramines <= 0.4\nmse = 0.0\nsamples = 33\nvalue = 0.0"] ;
225 -> 229 ;
230 [label="ph <= 0.4\nmse = 0.1\nsamples = 5\nvalue = 0.1"] ;
229 -> 230 ;
231 [label="mse = 0.0\nsamples = 4\nvalue = 0.0"] ;
230 -> 231 ;
232 [label="mse = 0.0\nsamples = 1\nvalue = 1.0"] ;
230 -> 232 ;
233 [label="mse = 0.0\nsamples = 28\nvalue = 0.0"] ;
229 -> 233 ;
234 [label="ph <= 0.4\nmse = 0.2\nsamples = 34\nvalue = 0.2"] ;
222 -> 234 ;
235 [label="Conductivity <= 0.5\nmse = 0.2\nsamples = 25\nvalue = 0.3"] ;
234 -> 235 ;
236 [label="Organic_carbon <= 0.4\nmse = 0.2\nsamples = 18\nvalue = 0.2"] ;
235 -> 236 ;
237 [label="Trihalomethanes <= 0.5\nmse = 0.2\nsamples = 7\nvalue = 0.6"] ;
236 -> 237 ;
238 [label="mse = 0.0\nsamples = 4\nvalue = 1.0"] ;
237 -> 238 ;
239 [label="mse = 0.0\nsamples = 3\nvalue = 0.0"] ;
237 -> 239 ;
240 [label="Sulfate <= 0.7\nmse = 0.1\nsamples = 11\nvalue = 0.1"] ;
236 -> 240 ;
241 [label="Organic_carbon <= 0.5\nmse = 0.2\nsamples = 2\nvalue = 0.5"] ;
240 -> 241 ;
242 [label="mse = 0.0\nsamples = 1\nvalue = 0.0"] ;
241 -> 242 ;
243 [label="mse = 0.0\nsamples = 1\nvalue = 1.0"] ;
241 -> 243 ;
244 [label="mse = 0.0\nsamples = 9\nvalue = 0.0"] ;
240 -> 244 ;
245 [label="Sulfate <= 0.8\nmse = 0.2\nsamples = 7\nvalue = 0.7"] ;
235 -> 245 ;
246 [label="Hardness <= 0.6\nmse = 0.1\nsamples = 6\nvalue = 0.8"] ;
245 -> 246 ;
247 [label="mse = 0.0\nsamples = 5\nvalue = 1.0"] ;
246 -> 247 ;
248 [label="mse = 0.0\nsamples = 1\nvalue = 0.0"] ;
246 -> 248 ;
249 [label="mse = 0.0\nsamples = 1\nvalue = 0.0"] ;
245 -> 249 ;
250 [label="mse = 0.0\nsamples = 9\nvalue = 0.0"] ;
234 -> 250 ;
251 [label="Sulfate <= 0.7\nmse = 0.2\nsamples = 5\nvalue = 0.5"] ;
221 -> 251 ;
252 [label="mse = 0.0\nsamples = 2\nvalue = 0.0"] ;
251 -> 252 ;
253 [label="mse = 0.0\nsamples = 3\nvalue = 1.0"] ;
251 -> 253 ;
254 [label="mse = 0.0\nsamples = 1\nvalue = 1.0"] ;
218 -> 254 ;
255 [label="Organic_carbon <= 0.4\nmse = 0.2\nsamples = 41\nvalue = 0.5"] ;
217 -> 255 ;
256 [label="Turbidity <= 0.3\nmse = 0.2\nsamples = 16\nvalue = 0.8"] ;
255 -> 256 ;
257 [label="mse = 0.0\nsamples = 1\nvalue = 0.0"] ;
256 -> 257 ;
258 [label="Hardness <= 0.5\nmse = 0.1\nsamples = 15\nvalue = 0.8"] ;
256 -> 258 ;
259 [label="Sulfate <= 0.7\nmse = 0.2\nsamples = 3\nvalue = 0.3"] ;
258 -> 259 ;
260 [label="mse = 0.0\nsamples = 1\nvalue = 1.0"] ;
259 -> 260 ;
261 [label="mse = 0.0\nsamples = 2\nvalue = 0.0"] ;
259 -> 261 ;
262 [label="Sulfate <= 0.8\nmse = 0.1\nsamples = 12\nvalue = 0.9"] ;
258 -> 262 ;
263 [label="mse = 0.0\nsamples = 11\nvalue = 1.0"] ;
262 -> 263 ;
264 [label="mse = 0.0\nsamples = 1\nvalue = 0.0"] ;
262 -> 264 ;
265 [label="Conductivity <= 0.2\nmse = 0.2\nsamples = 25\nvalue = 0.3"] ;
255 -> 265 ;
266 [label="Turbidity <= 0.6\nmse = 0.2\nsamples = 4\nvalue = 0.8"] ;
265 -> 266 ;
267 [label="mse = 0.0\nsamples = 3\nvalue = 1.0"] ;
266 -> 267 ;
268 [label="mse = 0.0\nsamples = 1\nvalue = 0.0"] ;
266 -> 268 ;
269 [label="Turbidity <= 0.5\nmse = 0.2\nsamples = 21\nvalue = 0.2"] ;
265 -> 269 ;
270 [label="Hardness <= 0.5\nmse = 0.0\nsamples = 13\nvalue = 0.1"] ;
269 -> 270 ;
271 [label="mse = 0.0\nsamples = 11\nvalue = 0.0"] ;
270 -> 271 ;
272 [label="Conductivity <= 0.6\nmse = 0.2\nsamples = 2\nvalue = 0.5"] ;
270 -> 272 ;
273 [label="mse = 0.0\nsamples = 1\nvalue = 1.0"] ;
272 -> 273 ;
274 [label="mse = 0.0\nsamples = 1\nvalue = 0.0"] ;
272 -> 274 ;
275 [label="Turbidity <= 0.6\nmse = 0.2\nsamples = 8\nvalue = 0.5"] ;
269 -> 275 ;
276 [label="mse = 0.0\nsamples = 4\nvalue = 1.0"] ;
275 -> 276 ;
277 [label="mse = 0.0\nsamples = 4\nvalue = 0.0"] ;
275 -> 277 ;
278 [label="Conductivity <= 0.2\nmse = 0.0\nsamples = 53\nvalue = 0.1"] ;
216 -> 278 ;
279 [label="mse = 0.0\nsamples = 1\nvalue = 1.0"] ;
278 -> 279 ;
280 [label="Sulfate <= 0.7\nmse = 0.0\nsamples = 52\nvalue = 0.0"] ;
278 -> 280 ;
281 [label="Sulfate <= 0.7\nmse = 0.1\nsamples = 14\nvalue = 0.1"] ;
280 -> 281 ;
282 [label="mse = 0.0\nsamples = 12\nvalue = 0.0"] ;
281 -> 282 ;
283 [label="mse = 0.0\nsamples = 2\nvalue = 1.0"] ;
281 -> 283 ;
284 [label="mse = 0.0\nsamples = 38\nvalue = 0.0"] ;
280 -> 284 ;
285 [label="Solids <= 0.7\nmse = 0.2\nsamples = 42\nvalue = 0.6"] ;
125 -> 285 ;
286 [label="Chloramines <= 0.5\nmse = 0.2\nsamples = 33\nvalue = 0.7"] ;
285 -> 286 ;
287 [label="Hardness <= 0.6\nmse = 0.1\nsamples = 21\nvalue = 0.9"] ;
286 -> 287 ;
288 [label="Conductivity <= 0.7\nmse = 0.1\nsamples = 20\nvalue = 0.9"] ;
287 -> 288 ;
289 [label="ph <= 0.5\nmse = 0.0\nsamples = 19\nvalue = 1.0"] ;
288 -> 289 ;
290 [label="mse = 0.0\nsamples = 15\nvalue = 1.0"] ;
289 -> 290 ;
291 [label="Sulfate <= 0.7\nmse = 0.2\nsamples = 4\nvalue = 0.8"] ;
289 -> 291 ;
292 [label="mse = 0.0\nsamples = 3\nvalue = 1.0"] ;
291 -> 292 ;
293 [label="mse = 0.0\nsamples = 1\nvalue = 0.0"] ;
291 -> 293 ;
294 [label="mse = 0.0\nsamples = 1\nvalue = 0.0"] ;
288 -> 294 ;
295 [label="mse = 0.0\nsamples = 1\nvalue = 0.0"] ;
287 -> 295 ;
296 [label="Organic_carbon <= 0.4\nmse = 0.2\nsamples = 12\nvalue = 0.4"] ;
286 -> 296 ;
297 [label="mse = 0.0\nsamples = 4\nvalue = 1.0"] ;
296 -> 297 ;
298 [label="Solids <= 0.7\nmse = 0.1\nsamples = 8\nvalue = 0.2"] ;
296 -> 298 ;
299 [label="mse = 0.0\nsamples = 7\nvalue = 0.0"] ;
298 -> 299 ;
300 [label="mse = 0.0\nsamples = 1\nvalue = 1.0"] ;
298 -> 300 ;
301 [label="Sulfate <= 0.8\nmse = 0.1\nsamples = 9\nvalue = 0.1"] ;
285 -> 301 ;
302 [label="mse = 0.0\nsamples = 8\nvalue = 0.0"] ;
301 -> 302 ;
303 [label="mse = 0.0\nsamples = 1\nvalue = 1.0"] ;
301 -> 303 ;
304 [label="ph <= 0.6\nmse = 0.2\nsamples = 208\nvalue = 0.4"] ;
124 -> 304 ;
305 [label="Sulfate <= 0.8\nmse = 0.2\nsamples = 187\nvalue = 0.4"] ;
304 -> 305 ;
306 [label="Solids <= 0.5\nmse = 0.2\nsamples = 164\nvalue = 0.4"] ;
305 -> 306 ;
307 [label="Conductivity <= 0.2\nmse = 0.2\nsamples = 142\nvalue = 0.4"] ;
306 -> 307 ;
308 [label="Turbidity <= 0.7\nmse = 0.0\nsamples = 9\nvalue = 0.1"] ;
307 -> 308 ;
309 [label="mse = 0.0\nsamples = 8\nvalue = 0.0"] ;
308 -> 309 ;
310 [label="mse = 0.0\nsamples = 1\nvalue = 1.0"] ;
308 -> 310 ;
311 [label="Conductivity <= 0.4\nmse = 0.2\nsamples = 133\nvalue = 0.4"] ;
307 -> 311 ;
312 [label="Trihalomethanes <= 0.7\nmse = 0.2\nsamples = 56\nvalue = 0.6"] ;
311 -> 312 ;
313 [label="ph <= 0.5\nmse = 0.2\nsamples = 50\nvalue = 0.6"] ;
312 -> 313 ;
314 [label="Conductivity <= 0.3\nmse = 0.2\nsamples = 40\nvalue = 0.5"] ;
313 -> 314 ;
315 [label="Trihalomethanes <= 0.6\nmse = 0.2\nsamples = 29\nvalue = 0.4"] ;
314 -> 315 ;
316 [label="Turbidity <= 0.6\nmse = 0.2\nsamples = 26\nvalue = 0.3"] ;
315 -> 316 ;
317 [label="Chloramines <= 0.2\nmse = 0.2\nsamples = 22\nvalue = 0.2"] ;
316 -> 317 ;
318 [label="mse = 0.0\nsamples = 2\nvalue = 1.0"] ;
317 -> 318 ;
319 [label="Trihalomethanes <= 0.4\nmse = 0.1\nsamples = 20\nvalue = 0.2"] ;
317 -> 319 ;
320 [label="Organic_carbon <= 0.4\nmse = 0.2\nsamples = 7\nvalue = 0.4"] ;
319 -> 320 ;
321 [label="mse = 0.0\nsamples = 3\nvalue = 1.0"] ;
320 -> 321 ;
322 [label="Organic_carbon <= 0.6\nmse = 0.1\nsamples = 4\nvalue = 0.1"] ;
320 -> 322 ;
323 [label="mse = 0.0\nsamples = 3\nvalue = 0.0"] ;
322 -> 323 ;
324 [label="mse = 0.0\nsamples = 1\nvalue = 1.0"] ;
322 -> 324 ;
325 [label="Hardness <= 0.8\nmse = 0.0\nsamples = 13\nvalue = 0.0"] ;
319 -> 325 ;
326 [label="mse = 0.0\nsamples = 12\nvalue = 0.0"] ;
325 -> 326 ;
327 [label="mse = 0.0\nsamples = 1\nvalue = 1.0"] ;
325 -> 327 ;
328 [label="Chloramines <= 0.4\nmse = 0.1\nsamples = 4\nvalue = 0.8"] ;
316 -> 328 ;
329 [label="mse = 0.0\nsamples = 1\nvalue = 0.0"] ;
328 -> 329 ;
330 [label="mse = 0.0\nsamples = 3\nvalue = 1.0"] ;
328 -> 330 ;
331 [label="mse = 0.0\nsamples = 3\nvalue = 1.0"] ;
315 -> 331 ;
332 [label="Trihalomethanes <= 0.3\nmse = 0.1\nsamples = 11\nvalue = 0.9"] ;
314 -> 332 ;
333 [label="mse = 0.0\nsamples = 1\nvalue = 0.0"] ;
332 -> 333 ;
334 [label="ph <= 0.5\nmse = 0.1\nsamples = 10\nvalue = 0.9"] ;
332 -> 334 ;
335 [label="mse = 0.0\nsamples = 8\nvalue = 1.0"] ;
334 -> 335 ;
336 [label="ph <= 0.5\nmse = 0.2\nsamples = 2\nvalue = 0.5"] ;
334 -> 336 ;
337 [label="mse = 0.0\nsamples = 1\nvalue = 0.0"] ;
336 -> 337 ;
338 [label="mse = 0.0\nsamples = 1\nvalue = 1.0"] ;
336 -> 338 ;
339 [label="Trihalomethanes <= 0.7\nmse = 0.1\nsamples = 10\nvalue = 0.9"] ;
313 -> 339 ;
340 [label="mse = 0.0\nsamples = 9\nvalue = 1.0"] ;
339 -> 340 ;
341 [label="mse = 0.0\nsamples = 1\nvalue = 0.0"] ;
339 -> 341 ;
342 [label="mse = 0.0\nsamples = 6\nvalue = 0.0"] ;
312 -> 342 ;
343 [label="Organic_carbon <= 0.3\nmse = 0.2\nsamples = 77\nvalue = 0.3"] ;
311 -> 343 ;
344 [label="Solids <= 0.3\nmse = 0.2\nsamples = 17\nvalue = 0.6"] ;
343 -> 344 ;
345 [label="Conductivity <= 0.4\nmse = 0.1\nsamples = 6\nvalue = 0.1"] ;
344 -> 345 ;
346 [label="mse = 0.0\nsamples = 1\nvalue = 1.0"] ;
345 -> 346 ;
347 [label="mse = 0.0\nsamples = 5\nvalue = 0.0"] ;
345 -> 347 ;
348 [label="Conductivity <= 0.4\nmse = 0.1\nsamples = 11\nvalue = 0.8"] ;
344 -> 348 ;
349 [label="Chloramines <= 0.4\nmse = 0.2\nsamples = 2\nvalue = 0.3"] ;
348 -> 349 ;
350 [label="mse = 0.0\nsamples = 1\nvalue = 1.0"] ;
349 -> 350 ;
351 [label="mse = 0.0\nsamples = 1\nvalue = 0.0"] ;
349 -> 351 ;
352 [label="Trihalomethanes <= 0.7\nmse = 0.1\nsamples = 9\nvalue = 0.9"] ;
348 -> 352 ;
353 [label="mse = 0.0\nsamples = 8\nvalue = 1.0"] ;
352 -> 353 ;
354 [label="mse = 0.0\nsamples = 1\nvalue = 0.0"] ;
352 -> 354 ;
355 [label="Trihalomethanes <= 0.5\nmse = 0.2\nsamples = 60\nvalue = 0.3"] ;
343 -> 355 ;
356 [label="Chloramines <= 0.3\nmse = 0.1\nsamples = 18\nvalue = 0.1"] ;
355 -> 356 ;
357 [label="Turbidity <= 0.5\nmse = 0.2\nsamples = 2\nvalue = 0.7"] ;
356 -> 357 ;
358 [label="mse = 0.0\nsamples = 1\nvalue = 0.0"] ;
357 -> 358 ;
359 [label="mse = 0.0\nsamples = 1\nvalue = 1.0"] ;
357 -> 359 ;
360 [label="Conductivity <= 0.6\nmse = 0.0\nsamples = 16\nvalue = 0.0"] ;
356 -> 360 ;
361 [label="mse = 0.0\nsamples = 15\nvalue = 0.0"] ;
360 -> 361 ;
362 [label="mse = 0.0\nsamples = 1\nvalue = 1.0"] ;
360 -> 362 ;
363 [label="Solids <= 0.2\nmse = 0.2\nsamples = 42\nvalue = 0.4"] ;
355 -> 363 ;
364 [label="mse = 0.0\nsamples = 4\nvalue = 1.0"] ;
363 -> 364 ;
365 [label="Organic_carbon <= 0.5\nmse = 0.2\nsamples = 38\nvalue = 0.3"] ;
363 -> 365 ;
366 [label="mse = 0.0\nsamples = 7\nvalue = 0.0"] ;
365 -> 366 ;
367 [label="Trihalomethanes <= 0.5\nmse = 0.2\nsamples = 31\nvalue = 0.4"] ;
365 -> 367 ;
368 [label="mse = 0.0\nsamples = 3\nvalue = 1.0"] ;
367 -> 368 ;
369 [label="Trihalomethanes <= 0.6\nmse = 0.2\nsamples = 28\nvalue = 0.4"] ;
367 -> 369 ;
370 [label="Solids <= 0.4\nmse = 0.1\nsamples = 16\nvalue = 0.2"] ;
369 -> 370 ;
371 [label="ph <= 0.5\nmse = 0.1\nsamples = 15\nvalue = 0.1"] ;
370 -> 371 ;
372 [label="Hardness <= 0.6\nmse = 0.0\nsamples = 14\nvalue = 0.0"] ;
371 -> 372 ;
373 [label="mse = 0.0\nsamples = 1\nvalue = 1.0"] ;
372 -> 373 ;
374 [label="mse = 0.0\nsamples = 13\nvalue = 0.0"] ;
372 -> 374 ;
375 [label="mse = 0.0\nsamples = 1\nvalue = 1.0"] ;
371 -> 375 ;
376 [label="mse = 0.0\nsamples = 1\nvalue = 1.0"] ;
370 -> 376 ;
377 [label="ph <= 0.5\nmse = 0.2\nsamples = 12\nvalue = 0.6"] ;
369 -> 377 ;
378 [label="Hardness <= 0.6\nmse = 0.1\nsamples = 9\nvalue = 0.8"] ;
377 -> 378 ;
379 [label="Trihalomethanes <= 0.8\nmse = 0.2\nsamples = 3\nvalue = 0.3"] ;
378 -> 379 ;
380 [label="mse = 0.0\nsamples = 2\nvalue = 0.0"] ;
379 -> 380 ;
381 [label="mse = 0.0\nsamples = 1\nvalue = 1.0"] ;
379 -> 381 ;
382 [label="mse = 0.0\nsamples = 6\nvalue = 1.0"] ;
378 -> 382 ;
383 [label="mse = 0.0\nsamples = 3\nvalue = 0.0"] ;
377 -> 383 ;
384 [label="Turbidity <= 0.7\nmse = 0.1\nsamples = 22\nvalue = 0.2"] ;
306 -> 384 ;
385 [label="Organic_carbon <= 0.2\nmse = 0.1\nsamples = 20\nvalue = 0.1"] ;
384 -> 385 ;
386 [label="mse = 0.0\nsamples = 1\nvalue = 1.0"] ;
385 -> 386 ;
387 [label="Turbidity <= 0.3\nmse = 0.0\nsamples = 19\nvalue = 0.0"] ;
385 -> 387 ;
388 [label="mse = 0.0\nsamples = 1\nvalue = 1.0"] ;
387 -> 388 ;
389 [label="mse = 0.0\nsamples = 18\nvalue = 0.0"] ;
387 -> 389 ;
390 [label="mse = 0.0\nsamples = 2\nvalue = 1.0"] ;
384 -> 390 ;
391 [label="Organic_carbon <= 0.4\nmse = 0.2\nsamples = 23\nvalue = 0.7"] ;
305 -> 391 ;
392 [label="Solids <= 0.5\nmse = 0.1\nsamples = 4\nvalue = 0.1"] ;
391 -> 392 ;
393 [label="mse = 0.0\nsamples = 3\nvalue = 0.0"] ;
392 -> 393 ;
394 [label="mse = 0.0\nsamples = 1\nvalue = 1.0"] ;
392 -> 394 ;
395 [label="Turbidity <= 0.2\nmse = 0.1\nsamples = 19\nvalue = 0.9"] ;
391 -> 395 ;
396 [label="mse = 0.0\nsamples = 1\nvalue = 0.0"] ;
395 -> 396 ;
397 [label="Sulfate <= 0.8\nmse = 0.1\nsamples = 18\nvalue = 0.9"] ;
395 -> 397 ;
398 [label="Chloramines <= 0.3\nmse = 0.0\nsamples = 17\nvalue = 1.0"] ;
397 -> 398 ;
399 [label="mse = 0.0\nsamples = 1\nvalue = 0.0"] ;
398 -> 399 ;
400 [label="mse = 0.0\nsamples = 16\nvalue = 1.0"] ;
398 -> 400 ;
401 [label="mse = 0.0\nsamples = 1\nvalue = 0.0"] ;
397 -> 401 ;
402 [label="Chloramines <= 0.3\nmse = 0.1\nsamples = 21\nvalue = 0.9"] ;
304 -> 402 ;
403 [label="mse = 0.0\nsamples = 2\nvalue = 0.0"] ;
402 -> 403 ;
404 [label="Hardness <= 0.7\nmse = 0.1\nsamples = 19\nvalue = 0.9"] ;
402 -> 404 ;
405 [label="mse = 0.0\nsamples = 15\nvalue = 1.0"] ;
404 -> 405 ;
406 [label="Organic_carbon <= 0.5\nmse = 0.2\nsamples = 4\nvalue = 0.7"] ;
404 -> 406 ;
407 [label="mse = 0.0\nsamples = 2\nvalue = 0.0"] ;
406 -> 407 ;
408 [label="mse = 0.0\nsamples = 2\nvalue = 1.0"] ;
406 -> 408 ;
409 [label="Solids <= 0.5\nmse = 0.1\nsamples = 158\nvalue = 0.2"] ;
123 -> 409 ;
410 [label="Turbidity <= 0.5\nmse = 0.1\nsamples = 123\nvalue = 0.1"] ;
409 -> 410 ;
411 [label="Turbidity <= 0.5\nmse = 0.1\nsamples = 65\nvalue = 0.2"] ;
410 -> 411 ;
412 [label="Hardness <= 0.7\nmse = 0.1\nsamples = 64\nvalue = 0.1"] ;
411 -> 412 ;
413 [label="Turbidity <= 0.1\nmse = 0.1\nsamples = 53\nvalue = 0.1"] ;
412 -> 413 ;
414 [label="mse = 0.0\nsamples = 1\nvalue = 1.0"] ;
413 -> 414 ;
415 [label="Chloramines <= 0.5\nmse = 0.1\nsamples = 52\nvalue = 0.1"] ;
413 -> 415 ;
416 [label="mse = 0.0\nsamples = 24\nvalue = 0.0"] ;
415 -> 416 ;
417 [label="Hardness <= 0.5\nmse = 0.1\nsamples = 28\nvalue = 0.2"] ;
415 -> 417 ;
418 [label="mse = 0.0\nsamples = 11\nvalue = 0.0"] ;
417 -> 418 ;
419 [label="Trihalomethanes <= 0.7\nmse = 0.2\nsamples = 17\nvalue = 0.3"] ;
417 -> 419 ;
420 [label="Sulfate <= 0.7\nmse = 0.2\nsamples = 16\nvalue = 0.2"] ;
419 -> 420 ;
421 [label="Turbidity <= 0.3\nmse = 0.1\nsamples = 11\nvalue = 0.1"] ;
420 -> 421 ;
422 [label="Turbidity <= 0.3\nmse = 0.2\nsamples = 3\nvalue = 0.5"] ;
421 -> 422 ;
423 [label="mse = 0.0\nsamples = 2\nvalue = 0.0"] ;
422 -> 423 ;
424 [label="mse = 0.0\nsamples = 1\nvalue = 1.0"] ;
422 -> 424 ;
425 [label="mse = 0.0\nsamples = 8\nvalue = 0.0"] ;
421 -> 425 ;
426 [label="Trihalomethanes <= 0.2\nmse = 0.2\nsamples = 5\nvalue = 0.6"] ;
420 -> 426 ;
427 [label="mse = 0.0\nsamples = 1\nvalue = 0.0"] ;
426 -> 427 ;
428 [label="mse = 0.0\nsamples = 4\nvalue = 1.0"] ;
426 -> 428 ;
429 [label="mse = 0.0\nsamples = 1\nvalue = 1.0"] ;
419 -> 429 ;
430 [label="Organic_carbon <= 0.5\nmse = 0.2\nsamples = 11\nvalue = 0.4"] ;
412 -> 430 ;
431 [label="Chloramines <= 0.4\nmse = 0.2\nsamples = 7\nvalue = 0.7"] ;
430 -> 431 ;
432 [label="Trihalomethanes <= 0.4\nmse = 0.1\nsamples = 5\nvalue = 0.9"] ;
431 -> 432 ;
433 [label="mse = 0.0\nsamples = 1\nvalue = 0.0"] ;
432 -> 433 ;
434 [label="mse = 0.0\nsamples = 4\nvalue = 1.0"] ;
432 -> 434 ;
435 [label="mse = 0.0\nsamples = 2\nvalue = 0.0"] ;
431 -> 435 ;
436 [label="mse = 0.0\nsamples = 4\nvalue = 0.0"] ;
430 -> 436 ;
437 [label="mse = 0.0\nsamples = 1\nvalue = 1.0"] ;
411 -> 437 ;
438 [label="Turbidity <= 0.8\nmse = 0.0\nsamples = 58\nvalue = 0.0"] ;
410 -> 438 ;
439 [label="Conductivity <= 0.6\nmse = 0.0\nsamples = 56\nvalue = 0.0"] ;
438 -> 439 ;
440 [label="mse = 0.0\nsamples = 49\nvalue = 0.0"] ;
439 -> 440 ;
441 [label="Solids <= 0.4\nmse = 0.2\nsamples = 7\nvalue = 0.2"] ;
439 -> 441 ;
442 [label="Organic_carbon <= 0.6\nmse = 0.1\nsamples = 6\nvalue = 0.1"] ;
441 -> 442 ;
443 [label="mse = 0.0\nsamples = 5\nvalue = 0.0"] ;
442 -> 443 ;
444 [label="mse = 0.0\nsamples = 1\nvalue = 1.0"] ;
442 -> 444 ;
445 [label="mse = 0.0\nsamples = 1\nvalue = 1.0"] ;
441 -> 445 ;
446 [label="Turbidity <= 0.8\nmse = 0.2\nsamples = 2\nvalue = 0.5"] ;
438 -> 446 ;
447 [label="mse = 0.0\nsamples = 1\nvalue = 1.0"] ;
446 -> 447 ;
448 [label="mse = 0.0\nsamples = 1\nvalue = 0.0"] ;
446 -> 448 ;
449 [label="Sulfate <= 0.7\nmse = 0.2\nsamples = 35\nvalue = 0.3"] ;
409 -> 449 ;
450 [label="Hardness <= 0.6\nmse = 0.2\nsamples = 23\nvalue = 0.5"] ;
449 -> 450 ;
451 [label="ph <= 0.6\nmse = 0.2\nsamples = 9\nvalue = 0.8"] ;
450 -> 451 ;
452 [label="mse = 0.0\nsamples = 1\nvalue = 0.0"] ;
451 -> 452 ;
453 [label="Turbidity <= 0.6\nmse = 0.1\nsamples = 8\nvalue = 0.9"] ;
451 -> 453 ;
454 [label="mse = 0.0\nsamples = 7\nvalue = 1.0"] ;
453 -> 454 ;
455 [label="mse = 0.0\nsamples = 1\nvalue = 0.0"] ;
453 -> 455 ;
456 [label="Conductivity <= 0.6\nmse = 0.2\nsamples = 14\nvalue = 0.3"] ;
450 -> 456 ;
457 [label="Trihalomethanes <= 0.7\nmse = 0.1\nsamples = 12\nvalue = 0.2"] ;
456 -> 457 ;
458 [label="Solids <= 0.5\nmse = 0.1\nsamples = 10\nvalue = 0.1"] ;
457 -> 458 ;
459 [label="mse = 0.0\nsamples = 1\nvalue = 1.0"] ;
458 -> 459 ;
460 [label="mse = 0.0\nsamples = 9\nvalue = 0.0"] ;
458 -> 460 ;
461 [label="mse = 0.0\nsamples = 2\nvalue = 1.0"] ;
457 -> 461 ;
462 [label="mse = 0.0\nsamples = 2\nvalue = 1.0"] ;
456 -> 462 ;
463 [label="ph <= 0.8\nmse = 0.0\nsamples = 12\nvalue = 0.0"] ;
449 -> 463 ;
464 [label="mse = 0.0\nsamples = 11\nvalue = 0.0"] ;
463 -> 464 ;
465 [label="mse = 0.0\nsamples = 1\nvalue = 1.0"] ;
463 -> 465 ;
466 [label="ph <= 0.5\nmse = 0.2\nsamples = 511\nvalue = 0.4"] ;
122 -> 466 ;
467 [label="Sulfate <= 0.8\nmse = 0.2\nsamples = 254\nvalue = 0.3"] ;
466 -> 467 ;
468 [label="Chloramines <= 0.6\nmse = 0.2\nsamples = 217\nvalue = 0.3"] ;
467 -> 468 ;
469 [label="mse = 0.0\nsamples = 4\nvalue = 1.0"] ;
468 -> 469 ;
470 [label="Sulfate <= 0.5\nmse = 0.2\nsamples = 213\nvalue = 0.2"] ;
468 -> 470 ;
471 [label="Conductivity <= 0.3\nmse = 0.2\nsamples = 66\nvalue = 0.4"] ;
470 -> 471 ;
472 [label="Organic_carbon <= 0.3\nmse = 0.1\nsamples = 20\nvalue = 0.2"] ;
471 -> 472 ;
473 [label="ph <= 0.2\nmse = 0.2\nsamples = 3\nvalue = 0.7"] ;
472 -> 473 ;
474 [label="mse = 0.0\nsamples = 2\nvalue = 1.0"] ;
473 -> 474 ;
475 [label="mse = 0.0\nsamples = 1\nvalue = 0.0"] ;
473 -> 475 ;
476 [label="Conductivity <= 0.3\nmse = 0.1\nsamples = 17\nvalue = 0.1"] ;
472 -> 476 ;
477 [label="mse = 0.0\nsamples = 9\nvalue = 0.0"] ;
476 -> 477 ;
478 [label="Conductivity <= 0.3\nmse = 0.2\nsamples = 8\nvalue = 0.2"] ;
476 -> 478 ;
479 [label="Organic_carbon <= 0.5\nmse = 0.2\nsamples = 3\nvalue = 0.7"] ;
478 -> 479 ;
480 [label="mse = 0.0\nsamples = 2\nvalue = 1.0"] ;
479 -> 480 ;
481 [label="mse = 0.0\nsamples = 1\nvalue = 0.0"] ;
479 -> 481 ;
482 [label="mse = 0.0\nsamples = 5\nvalue = 0.0"] ;
478 -> 482 ;
483 [label="Solids <= 0.2\nmse = 0.2\nsamples = 46\nvalue = 0.5"] ;
471 -> 483 ;
484 [label="mse = 0.0\nsamples = 4\nvalue = 1.0"] ;
483 -> 484 ;
485 [label="Turbidity <= 0.6\nmse = 0.2\nsamples = 42\nvalue = 0.4"] ;
483 -> 485 ;
486 [label="Solids <= 0.6\nmse = 0.2\nsamples = 32\nvalue = 0.5"] ;
485 -> 486 ;
487 [label="Chloramines <= 0.7\nmse = 0.2\nsamples = 29\nvalue = 0.4"] ;
486 -> 487 ;
488 [label="Chloramines <= 0.6\nmse = 0.2\nsamples = 23\nvalue = 0.5"] ;
487 -> 488 ;
489 [label="Solids <= 0.3\nmse = 0.1\nsamples = 7\nvalue = 0.2"] ;
488 -> 489 ;
490 [label="Chloramines <= 0.6\nmse = 0.2\nsamples = 2\nvalue = 0.7"] ;
489 -> 490 ;
491 [label="mse = 0.0\nsamples = 1\nvalue = 1.0"] ;
490 -> 491 ;
492 [label="mse = 0.0\nsamples = 1\nvalue = 0.0"] ;
490 -> 492 ;
493 [label="mse = 0.0\nsamples = 5\nvalue = 0.0"] ;
489 -> 493 ;
494 [label="Solids <= 0.4\nmse = 0.2\nsamples = 16\nvalue = 0.7"] ;
488 -> 494 ;
495 [label="Hardness <= 0.7\nmse = 0.2\nsamples = 14\nvalue = 0.8"] ;
494 -> 495 ;
496 [label="Conductivity <= 0.3\nmse = 0.1\nsamples = 11\nvalue = 0.9"] ;
495 -> 496 ;
497 [label="mse = 0.0\nsamples = 1\nvalue = 0.0"] ;
496 -> 497 ;
498 [label="Solids <= 0.4\nmse = 0.1\nsamples = 10\nvalue = 0.9"] ;
496 -> 498 ;
499 [label="mse = 0.0\nsamples = 8\nvalue = 1.0"] ;
498 -> 499 ;
500 [label="Conductivity <= 0.5\nmse = 0.2\nsamples = 2\nvalue = 0.7"] ;
498 -> 500 ;
501 [label="mse = 0.0\nsamples = 1\nvalue = 0.0"] ;
500 -> 501 ;
502 [label="mse = 0.0\nsamples = 1\nvalue = 1.0"] ;
500 -> 502 ;
503 [label="ph <= 0.1\nmse = 0.2\nsamples = 3\nvalue = 0.3"] ;
495 -> 503 ;
504 [label="mse = 0.0\nsamples = 2\nvalue = 0.0"] ;
503 -> 504 ;
505 [label="mse = 0.0\nsamples = 1\nvalue = 1.0"] ;
503 -> 505 ;
506 [label="mse = 0.0\nsamples = 2\nvalue = 0.0"] ;
494 -> 506 ;
507 [label="mse = 0.0\nsamples = 6\nvalue = 0.0"] ;
487 -> 507 ;
508 [label="mse = 0.0\nsamples = 3\nvalue = 1.0"] ;
486 -> 508 ;
509 [label="mse = 0.0\nsamples = 10\nvalue = 0.0"] ;
485 -> 509 ;
510 [label="Trihalomethanes <= 0.6\nmse = 0.2\nsamples = 147\nvalue = 0.2"] ;
470 -> 510 ;
511 [label="Sulfate <= 0.7\nmse = 0.1\nsamples = 114\nvalue = 0.1"] ;
510 -> 511 ;
512 [label="Chloramines <= 0.6\nmse = 0.1\nsamples = 94\nvalue = 0.1"] ;
511 -> 512 ;
513 [label="Trihalomethanes <= 0.4\nmse = 0.2\nsamples = 6\nvalue = 0.4"] ;
512 -> 513 ;
514 [label="mse = 0.0\nsamples = 3\nvalue = 0.0"] ;
513 -> 514 ;
515 [label="mse = 0.0\nsamples = 3\nvalue = 1.0"] ;
513 -> 515 ;
516 [label="Solids <= 0.4\nmse = 0.1\nsamples = 88\nvalue = 0.1"] ;
512 -> 516 ;
517 [label="Conductivity <= 0.2\nmse = 0.0\nsamples = 59\nvalue = 0.0"] ;
516 -> 517 ;
518 [label="Conductivity <= 0.2\nmse = 0.2\nsamples = 4\nvalue = 0.2"] ;
517 -> 518 ;
519 [label="mse = 0.0\nsamples = 3\nvalue = 0.0"] ;
518 -> 519 ;
520 [label="mse = 0.0\nsamples = 1\nvalue = 1.0"] ;
518 -> 520 ;
521 [label="ph <= 0.4\nmse = 0.0\nsamples = 55\nvalue = 0.0"] ;
517 -> 521 ;
522 [label="mse = 0.0\nsamples = 37\nvalue = 0.0"] ;
521 -> 522 ;
523 [label="ph <= 0.4\nmse = 0.1\nsamples = 18\nvalue = 0.1"] ;
521 -> 523 ;
524 [label="mse = 0.0\nsamples = 1\nvalue = 1.0"] ;
523 -> 524 ;
525 [label="Turbidity <= 0.6\nmse = 0.0\nsamples = 17\nvalue = 0.0"] ;
523 -> 525 ;
526 [label="mse = 0.0\nsamples = 16\nvalue = 0.0"] ;
525 -> 526 ;
527 [label="mse = 0.0\nsamples = 1\nvalue = 1.0"] ;
525 -> 527 ;
528 [label="Hardness <= 0.7\nmse = 0.1\nsamples = 29\nvalue = 0.2"] ;
516 -> 528 ;
529 [label="Sulfate <= 0.7\nmse = 0.1\nsamples = 28\nvalue = 0.1"] ;
528 -> 529 ;
530 [label="Conductivity <= 0.3\nmse = 0.2\nsamples = 12\nvalue = 0.3"] ;
529 -> 530 ;
531 [label="mse = 0.0\nsamples = 2\nvalue = 1.0"] ;
530 -> 531 ;
532 [label="Chloramines <= 0.6\nmse = 0.2\nsamples = 10\nvalue = 0.2"] ;
530 -> 532 ;
533 [label="mse = 0.0\nsamples = 5\nvalue = 0.0"] ;
532 -> 533 ;
534 [label="Turbidity <= 0.4\nmse = 0.2\nsamples = 5\nvalue = 0.5"] ;
532 -> 534 ;
535 [label="mse = 0.0\nsamples = 2\nvalue = 1.0"] ;
534 -> 535 ;
536 [label="Hardness <= 0.6\nmse = 0.2\nsamples = 3\nvalue = 0.2"] ;
534 -> 536 ;
537 [label="mse = 0.0\nsamples = 2\nvalue = 0.0"] ;
536 -> 537 ;
538 [label="mse = 0.0\nsamples = 1\nvalue = 1.0"] ;
536 -> 538 ;
539 [label="mse = 0.0\nsamples = 16\nvalue = 0.0"] ;
529 -> 539 ;
540 [label="mse = 0.0\nsamples = 1\nvalue = 1.0"] ;
528 -> 540 ;
541 [label="Conductivity <= 0.3\nmse = 0.2\nsamples = 20\nvalue = 0.3"] ;
511 -> 541 ;
542 [label="mse = 0.0\nsamples = 2\nvalue = 1.0"] ;
541 -> 542 ;
543 [label="Sulfate <= 0.7\nmse = 0.1\nsamples = 18\nvalue = 0.1"] ;
541 -> 543 ;
544 [label="mse = 0.0\nsamples = 2\nvalue = 1.0"] ;
543 -> 544 ;
545 [label="Hardness <= 0.6\nmse = 0.0\nsamples = 16\nvalue = 0.0"] ;
543 -> 545 ;
546 [label="mse = 0.0\nsamples = 14\nvalue = 0.0"] ;
545 -> 546 ;
547 [label="Hardness <= 0.7\nmse = 0.2\nsamples = 2\nvalue = 0.3"] ;
545 -> 547 ;
548 [label="mse = 0.0\nsamples = 1\nvalue = 1.0"] ;
547 -> 548 ;
549 [label="mse = 0.0\nsamples = 1\nvalue = 0.0"] ;
547 -> 549 ;
550 [label="ph <= 0.4\nmse = 0.2\nsamples = 33\nvalue = 0.5"] ;
510 -> 550 ;
551 [label="Trihalomethanes <= 0.6\nmse = 0.2\nsamples = 26\nvalue = 0.3"] ;
550 -> 551 ;
552 [label="Hardness <= 0.5\nmse = 0.2\nsamples = 7\nvalue = 0.7"] ;
551 -> 552 ;
553 [label="mse = 0.0\nsamples = 4\nvalue = 1.0"] ;
552 -> 553 ;
554 [label="mse = 0.0\nsamples = 3\nvalue = 0.0"] ;
552 -> 554 ;
555 [label="Hardness <= 0.7\nmse = 0.1\nsamples = 19\nvalue = 0.1"] ;
551 -> 555 ;
556 [label="Turbidity <= 0.7\nmse = 0.1\nsamples = 18\nvalue = 0.1"] ;
555 -> 556 ;
557 [label="ph <= 0.4\nmse = 0.0\nsamples = 16\nvalue = 0.0"] ;
556 -> 557 ;
558 [label="mse = 0.0\nsamples = 14\nvalue = 0.0"] ;
557 -> 558 ;
559 [label="Trihalomethanes <= 0.7\nmse = 0.2\nsamples = 2\nvalue = 0.3"] ;
557 -> 559 ;
560 [label="mse = 0.0\nsamples = 1\nvalue = 0.0"] ;
559 -> 560 ;
561 [label="mse = 0.0\nsamples = 1\nvalue = 1.0"] ;
559 -> 561 ;
562 [label="Organic_carbon <= 0.5\nmse = 0.2\nsamples = 2\nvalue = 0.5"] ;
556 -> 562 ;
563 [label="mse = 0.0\nsamples = 1\nvalue = 1.0"] ;
562 -> 563 ;
564 [label="mse = 0.0\nsamples = 1\nvalue = 0.0"] ;
562 -> 564 ;
565 [label="mse = 0.0\nsamples = 1\nvalue = 1.0"] ;
555 -> 565 ;
566 [label="Hardness <= 0.5\nmse = 0.1\nsamples = 7\nvalue = 0.9"] ;
550 -> 566 ;
567 [label="mse = 0.0\nsamples = 5\nvalue = 1.0"] ;
566 -> 567 ;
568 [label="ph <= 0.5\nmse = 0.2\nsamples = 2\nvalue = 0.5"] ;
566 -> 568 ;
569 [label="mse = 0.0\nsamples = 1\nvalue = 1.0"] ;
568 -> 569 ;
570 [label="mse = 0.0\nsamples = 1\nvalue = 0.0"] ;
568 -> 570 ;
571 [label="Solids <= 0.5\nmse = 0.2\nsamples = 37\nvalue = 0.7"] ;
467 -> 571 ;
572 [label="Conductivity <= 0.6\nmse = 0.2\nsamples = 32\nvalue = 0.8"] ;
571 -> 572 ;
573 [label="Organic_carbon <= 0.7\nmse = 0.1\nsamples = 30\nvalue = 0.9"] ;
572 -> 573 ;
574 [label="Hardness <= 0.4\nmse = 0.1\nsamples = 27\nvalue = 0.9"] ;
573 -> 574 ;
575 [label="mse = 0.0\nsamples = 1\nvalue = 0.0"] ;
574 -> 575 ;
576 [label="Solids <= 0.2\nmse = 0.0\nsamples = 26\nvalue = 1.0"] ;
574 -> 576 ;
577 [label="Solids <= 0.2\nmse = 0.1\nsamples = 10\nvalue = 0.9"] ;
576 -> 577 ;
578 [label="Sulfate <= 0.8\nmse = 0.1\nsamples = 9\nvalue = 0.9"] ;
577 -> 578 ;
579 [label="Organic_carbon <= 0.4\nmse = 0.2\nsamples = 3\nvalue = 0.7"] ;
578 -> 579 ;
580 [label="mse = 0.0\nsamples = 1\nvalue = 0.0"] ;
579 -> 580 ;
581 [label="mse = 0.0\nsamples = 2\nvalue = 1.0"] ;
579 -> 581 ;
582 [label="mse = 0.0\nsamples = 6\nvalue = 1.0"] ;
578 -> 582 ;
583 [label="mse = 0.0\nsamples = 1\nvalue = 0.0"] ;
577 -> 583 ;
584 [label="mse = 0.0\nsamples = 16\nvalue = 1.0"] ;
576 -> 584 ;
585 [label="Conductivity <= 0.3\nmse = 0.2\nsamples = 3\nvalue = 0.3"] ;
573 -> 585 ;
586 [label="mse = 0.0\nsamples = 1\nvalue = 1.0"] ;
585 -> 586 ;
587 [label="mse = 0.0\nsamples = 2\nvalue = 0.0"] ;
585 -> 587 ;
588 [label="mse = 0.0\nsamples = 2\nvalue = 0.0"] ;
572 -> 588 ;
589 [label="mse = 0.0\nsamples = 5\nvalue = 0.0"] ;
571 -> 589 ;
590 [label="Sulfate <= 0.6\nmse = 0.2\nsamples = 257\nvalue = 0.5"] ;
466 -> 590 ;
591 [label="Sulfate <= 0.5\nmse = 0.2\nsamples = 103\nvalue = 0.6"] ;
590 -> 591 ;
592 [label="ph <= 0.5\nmse = 0.2\nsamples = 64\nvalue = 0.5"] ;
591 -> 592 ;
593 [label="Hardness <= 0.4\nmse = 0.1\nsamples = 11\nvalue = 0.8"] ;
592 -> 593 ;
594 [label="mse = 0.0\nsamples = 1\nvalue = 0.0"] ;
593 -> 594 ;
595 [label="Solids <= 0.1\nmse = 0.1\nsamples = 10\nvalue = 0.9"] ;
593 -> 595 ;
596 [label="mse = 0.0\nsamples = 1\nvalue = 0.0"] ;
595 -> 596 ;
597 [label="mse = 0.0\nsamples = 9\nvalue = 1.0"] ;
595 -> 597 ;
598 [label="Chloramines <= 0.6\nmse = 0.2\nsamples = 53\nvalue = 0.4"] ;
592 -> 598 ;
599 [label="Conductivity <= 0.8\nmse = 0.1\nsamples = 16\nvalue = 0.2"] ;
598 -> 599 ;
600 [label="Trihalomethanes <= 0.6\nmse = 0.1\nsamples = 15\nvalue = 0.1"] ;
599 -> 600 ;
601 [label="Turbidity <= 0.7\nmse = 0.1\nsamples = 14\nvalue = 0.1"] ;
600 -> 601 ;
602 [label="Organic_carbon <= 0.4\nmse = 0.0\nsamples = 13\nvalue = 0.0"] ;
601 -> 602 ;
603 [label="Solids <= 0.3\nmse = 0.2\nsamples = 3\nvalue = 0.2"] ;
602 -> 603 ;
604 [label="mse = 0.0\nsamples = 2\nvalue = 0.0"] ;
603 -> 604 ;
605 [label="mse = 0.0\nsamples = 1\nvalue = 1.0"] ;
603 -> 605 ;
606 [label="mse = 0.0\nsamples = 10\nvalue = 0.0"] ;
602 -> 606 ;
607 [label="mse = 0.0\nsamples = 1\nvalue = 1.0"] ;
601 -> 607 ;
608 [label="mse = 0.0\nsamples = 1\nvalue = 1.0"] ;
600 -> 608 ;
609 [label="mse = 0.0\nsamples = 1\nvalue = 1.0"] ;
599 -> 609 ;
610 [label="Trihalomethanes <= 0.4\nmse = 0.2\nsamples = 37\nvalue = 0.6"] ;
598 -> 610 ;
611 [label="Chloramines <= 0.7\nmse = 0.1\nsamples = 6\nvalue = 0.9"] ;
610 -> 611 ;
612 [label="mse = 0.0\nsamples = 1\nvalue = 0.0"] ;
611 -> 612 ;
613 [label="mse = 0.0\nsamples = 5\nvalue = 1.0"] ;
611 -> 613 ;
614 [label="Trihalomethanes <= 0.5\nmse = 0.2\nsamples = 31\nvalue = 0.5"] ;
610 -> 614 ;
615 [label="mse = 0.0\nsamples = 7\nvalue = 0.0"] ;
614 -> 615 ;
616 [label="Hardness <= 0.5\nmse = 0.2\nsamples = 24\nvalue = 0.6"] ;
614 -> 616 ;
617 [label="Solids <= 0.2\nmse = 0.1\nsamples = 7\nvalue = 0.9"] ;
616 -> 617 ;
618 [label="mse = 0.0\nsamples = 1\nvalue = 0.0"] ;
617 -> 618 ;
619 [label="mse = 0.0\nsamples = 6\nvalue = 1.0"] ;
617 -> 619 ;
620 [label="Turbidity <= 0.4\nmse = 0.2\nsamples = 17\nvalue = 0.4"] ;
616 -> 620 ;
621 [label="mse = 0.0\nsamples = 7\nvalue = 0.0"] ;
620 -> 621 ;
622 [label="Organic_carbon <= 0.6\nmse = 0.2\nsamples = 10\nvalue = 0.6"] ;
620 -> 622 ;
623 [label="Hardness <= 0.7\nmse = 0.1\nsamples = 6\nvalue = 0.9"] ;
622 -> 623 ;
624 [label="mse = 0.0\nsamples = 5\nvalue = 1.0"] ;
623 -> 624 ;
625 [label="mse = 0.0\nsamples = 1\nvalue = 0.0"] ;
623 -> 625 ;
626 [label="Chloramines <= 0.7\nmse = 0.2\nsamples = 4\nvalue = 0.3"] ;
622 -> 626 ;
627 [label="mse = 0.0\nsamples = 2\nvalue = 0.0"] ;
626 -> 627 ;
628 [label="mse = 0.0\nsamples = 2\nvalue = 1.0"] ;
626 -> 628 ;
629 [label="Hardness <= 0.6\nmse = 0.2\nsamples = 39\nvalue = 0.8"] ;
591 -> 629 ;
630 [label="mse = 0.0\nsamples = 20\nvalue = 1.0"] ;
629 -> 630 ;
631 [label="Turbidity <= 0.4\nmse = 0.2\nsamples = 19\nvalue = 0.6"] ;
629 -> 631 ;
632 [label="Conductivity <= 0.6\nmse = 0.1\nsamples = 6\nvalue = 0.1"] ;
631 -> 632 ;
633 [label="mse = 0.0\nsamples = 5\nvalue = 0.0"] ;
632 -> 633 ;
634 [label="mse = 0.0\nsamples = 1\nvalue = 1.0"] ;
632 -> 634 ;
635 [label="Hardness <= 0.6\nmse = 0.2\nsamples = 13\nvalue = 0.8"] ;
631 -> 635 ;
636 [label="mse = 0.0\nsamples = 2\nvalue = 0.0"] ;
635 -> 636 ;
637 [label="Organic_carbon <= 0.7\nmse = 0.1\nsamples = 11\nvalue = 0.9"] ;
635 -> 637 ;
638 [label="Solids <= 0.2\nmse = 0.0\nsamples = 10\nvalue = 0.9"] ;
637 -> 638 ;
639 [label="Organic_carbon <= 0.5\nmse = 0.2\nsamples = 2\nvalue = 0.7"] ;
638 -> 639 ;
640 [label="mse = 0.0\nsamples = 1\nvalue = 1.0"] ;
639 -> 640 ;
641 [label="mse = 0.0\nsamples = 1\nvalue = 0.0"] ;
639 -> 641 ;
642 [label="mse = 0.0\nsamples = 8\nvalue = 1.0"] ;
638 -> 642 ;
643 [label="mse = 0.0\nsamples = 1\nvalue = 0.0"] ;
637 -> 643 ;
644 [label="Chloramines <= 0.7\nmse = 0.2\nsamples = 154\nvalue = 0.4"] ;
590 -> 644 ;
645 [label="Trihalomethanes <= 0.5\nmse = 0.2\nsamples = 111\nvalue = 0.5"] ;
644 -> 645 ;
646 [label="Chloramines <= 0.6\nmse = 0.2\nsamples = 44\nvalue = 0.7"] ;
645 -> 646 ;
647 [label="Hardness <= 0.7\nmse = 0.1\nsamples = 28\nvalue = 0.8"] ;
646 -> 647 ;
648 [label="Conductivity <= 0.7\nmse = 0.1\nsamples = 25\nvalue = 0.9"] ;
647 -> 648 ;
649 [label="Turbidity <= 0.4\nmse = 0.1\nsamples = 24\nvalue = 0.9"] ;
648 -> 649 ;
650 [label="Turbidity <= 0.4\nmse = 0.2\nsamples = 7\nvalue = 0.7"] ;
649 -> 650 ;
651 [label="mse = 0.0\nsamples = 3\nvalue = 1.0"] ;
650 -> 651 ;
652 [label="Trihalomethanes <= 0.4\nmse = 0.2\nsamples = 4\nvalue = 0.4"] ;
650 -> 652 ;
653 [label="mse = 0.0\nsamples = 3\nvalue = 0.0"] ;
652 -> 653 ;
654 [label="mse = 0.0\nsamples = 1\nvalue = 1.0"] ;
652 -> 654 ;
655 [label="mse = 0.0\nsamples = 17\nvalue = 1.0"] ;
649 -> 655 ;
656 [label="mse = 0.0\nsamples = 1\nvalue = 0.0"] ;
648 -> 656 ;
657 [label="Trihalomethanes <= 0.2\nmse = 0.2\nsamples = 3\nvalue = 0.2"] ;
647 -> 657 ;
658 [label="mse = 0.0\nsamples = 1\nvalue = 1.0"] ;
657 -> 658 ;
659 [label="mse = 0.0\nsamples = 2\nvalue = 0.0"] ;
657 -> 659 ;
660 [label="Chloramines <= 0.6\nmse = 0.2\nsamples = 16\nvalue = 0.5"] ;
646 -> 660 ;
661 [label="Trihalomethanes <= 0.5\nmse = 0.1\nsamples = 8\nvalue = 0.1"] ;
660 -> 661 ;
662 [label="mse = 0.0\nsamples = 7\nvalue = 0.0"] ;
661 -> 662 ;
663 [label="mse = 0.0\nsamples = 1\nvalue = 1.0"] ;
661 -> 663 ;
664 [label="Hardness <= 0.5\nmse = 0.2\nsamples = 8\nvalue = 0.8"] ;
660 -> 664 ;
665 [label="mse = 0.0\nsamples = 2\nvalue = 0.0"] ;
664 -> 665 ;
666 [label="Trihalomethanes <= 0.1\nmse = 0.1\nsamples = 6\nvalue = 0.9"] ;
664 -> 666 ;
667 [label="mse = 0.0\nsamples = 1\nvalue = 0.0"] ;
666 -> 667 ;
668 [label="mse = 0.0\nsamples = 5\nvalue = 1.0"] ;
666 -> 668 ;
669 [label="Hardness <= 0.6\nmse = 0.2\nsamples = 67\nvalue = 0.4"] ;
645 -> 669 ;
670 [label="Turbidity <= 0.2\nmse = 0.1\nsamples = 37\nvalue = 0.2"] ;
669 -> 670 ;
671 [label="mse = 0.0\nsamples = 2\nvalue = 1.0"] ;
670 -> 671 ;
672 [label="Chloramines <= 0.6\nmse = 0.1\nsamples = 35\nvalue = 0.1"] ;
670 -> 672 ;
673 [label="mse = 0.0\nsamples = 1\nvalue = 1.0"] ;
672 -> 673 ;
674 [label="Solids <= 0.4\nmse = 0.1\nsamples = 34\nvalue = 0.1"] ;
672 -> 674 ;
675 [label="Trihalomethanes <= 0.8\nmse = 0.0\nsamples = 29\nvalue = 0.0"] ;
674 -> 675 ;
676 [label="Organic_carbon <= 0.6\nmse = 0.0\nsamples = 28\nvalue = 0.0"] ;
675 -> 676 ;
677 [label="mse = 0.0\nsamples = 25\nvalue = 0.0"] ;
676 -> 677 ;
678 [label="ph <= 0.6\nmse = 0.2\nsamples = 3\nvalue = 0.2"] ;
676 -> 678 ;
679 [label="mse = 0.0\nsamples = 2\nvalue = 0.0"] ;
678 -> 679 ;
680 [label="mse = 0.0\nsamples = 1\nvalue = 1.0"] ;
678 -> 680 ;
681 [label="mse = 0.0\nsamples = 1\nvalue = 1.0"] ;
675 -> 681 ;
682 [label="Solids <= 0.5\nmse = 0.2\nsamples = 5\nvalue = 0.4"] ;
674 -> 682 ;
683 [label="mse = 0.0\nsamples = 2\nvalue = 1.0"] ;
682 -> 683 ;
684 [label="mse = 0.0\nsamples = 3\nvalue = 0.0"] ;
682 -> 684 ;
685 [label="Turbidity <= 0.5\nmse = 0.2\nsamples = 30\nvalue = 0.6"] ;
669 -> 685 ;
686 [label="Solids <= 0.2\nmse = 0.1\nsamples = 15\nvalue = 0.8"] ;
685 -> 686 ;
687 [label="Organic_carbon <= 0.5\nmse = 0.2\nsamples = 4\nvalue = 0.3"] ;
686 -> 687 ;
688 [label="mse = 0.0\nsamples = 1\nvalue = 1.0"] ;
687 -> 688 ;
689 [label="mse = 0.0\nsamples = 3\nvalue = 0.0"] ;
687 -> 689 ;
690 [label="Chloramines <= 0.6\nmse = 0.0\nsamples = 11\nvalue = 1.0"] ;
686 -> 690 ;
691 [label="mse = 0.0\nsamples = 1\nvalue = 0.0"] ;
690 -> 691 ;
692 [label="mse = 0.0\nsamples = 10\nvalue = 1.0"] ;
690 -> 692 ;
693 [label="Turbidity <= 0.7\nmse = 0.2\nsamples = 15\nvalue = 0.2"] ;
685 -> 693 ;
694 [label="ph <= 0.7\nmse = 0.1\nsamples = 13\nvalue = 0.1"] ;
693 -> 694 ;
695 [label="Organic_carbon <= 0.3\nmse = 0.1\nsamples = 12\nvalue = 0.1"] ;
694 -> 695 ;
696 [label="Turbidity <= 0.6\nmse = 0.2\nsamples = 2\nvalue = 0.5"] ;
695 -> 696 ;
697 [label="mse = 0.0\nsamples = 1\nvalue = 1.0"] ;
696 -> 697 ;
698 [label="mse = 0.0\nsamples = 1\nvalue = 0.0"] ;
696 -> 698 ;
699 [label="mse = 0.0\nsamples = 10\nvalue = 0.0"] ;
695 -> 699 ;
700 [label="mse = 0.0\nsamples = 1\nvalue = 1.0"] ;
694 -> 700 ;
701 [label="mse = 0.0\nsamples = 2\nvalue = 1.0"] ;
693 -> 701 ;
702 [label="Hardness <= 0.4\nmse = 0.1\nsamples = 43\nvalue = 0.1"] ;
644 -> 702 ;
703 [label="mse = 0.0\nsamples = 1\nvalue = 1.0"] ;
702 -> 703 ;
704 [label="Conductivity <= 0.8\nmse = 0.1\nsamples = 42\nvalue = 0.1"] ;
702 -> 704 ;
705 [label="ph <= 0.8\nmse = 0.1\nsamples = 41\nvalue = 0.1"] ;
704 -> 705 ;
706 [label="Sulfate <= 0.8\nmse = 0.1\nsamples = 40\nvalue = 0.1"] ;
705 -> 706 ;
707 [label="Conductivity <= 0.3\nmse = 0.1\nsamples = 33\nvalue = 0.1"] ;
706 -> 707 ;
708 [label="Trihalomethanes <= 0.6\nmse = 0.2\nsamples = 4\nvalue = 0.4"] ;
707 -> 708 ;
709 [label="mse = 0.0\nsamples = 2\nvalue = 1.0"] ;
708 -> 709 ;
710 [label="mse = 0.0\nsamples = 2\nvalue = 0.0"] ;
708 -> 710 ;
711 [label="Sulfate <= 0.7\nmse = 0.0\nsamples = 29\nvalue = 0.0"] ;
707 -> 711 ;
712 [label="ph <= 0.5\nmse = 0.2\nsamples = 3\nvalue = 0.2"] ;
711 -> 712 ;
713 [label="mse = 0.0\nsamples = 1\nvalue = 1.0"] ;
712 -> 713 ;
714 [label="mse = 0.0\nsamples = 2\nvalue = 0.0"] ;
712 -> 714 ;
715 [label="ph <= 0.7\nmse = 0.0\nsamples = 26\nvalue = 0.0"] ;
711 -> 715 ;
716 [label="mse = 0.0\nsamples = 21\nvalue = 0.0"] ;
715 -> 716 ;
717 [label="Trihalomethanes <= 0.5\nmse = 0.1\nsamples = 5\nvalue = 0.1"] ;
715 -> 717 ;
718 [label="mse = 0.0\nsamples = 1\nvalue = 1.0"] ;
717 -> 718 ;
719 [label="mse = 0.0\nsamples = 4\nvalue = 0.0"] ;
717 -> 719 ;
720 [label="Sulfate <= 0.8\nmse = 0.2\nsamples = 7\nvalue = 0.4"] ;
706 -> 720 ;
721 [label="Conductivity <= 0.4\nmse = 0.2\nsamples = 4\nvalue = 0.8"] ;
720 -> 721 ;
722 [label="mse = 0.0\nsamples = 1\nvalue = 0.0"] ;
721 -> 722 ;
723 [label="mse = 0.0\nsamples = 3\nvalue = 1.0"] ;
721 -> 723 ;
724 [label="mse = 0.0\nsamples = 3\nvalue = 0.0"] ;
720 -> 724 ;
725 [label="mse = 0.0\nsamples = 1\nvalue = 1.0"] ;
705 -> 725 ;
726 [label="mse = 0.0\nsamples = 1\nvalue = 1.0"] ;
704 -> 726 ;
727 [label="ph <= 0.7\nmse = 0.0\nsamples = 10\nvalue = 0.9"] ;
121 -> 727 ;
728 [label="mse = 0.0\nsamples = 9\nvalue = 1.0"] ;
727 -> 728 ;
729 [label="mse = 0.0\nsamples = 1\nvalue = 0.0"] ;
727 -> 729 ;
730 [label="Hardness <= 0.7\nmse = 0.1\nsamples = 20\nvalue = 0.9"] ;
120 -> 730 ;
731 [label="Sulfate <= 0.9\nmse = 0.0\nsamples = 18\nvalue = 1.0"] ;
730 -> 731 ;
732 [label="Hardness <= 0.6\nmse = 0.2\nsamples = 3\nvalue = 0.7"] ;
731 -> 732 ;
733 [label="mse = 0.0\nsamples = 1\nvalue = 0.0"] ;
732 -> 733 ;
734 [label="mse = 0.0\nsamples = 2\nvalue = 1.0"] ;
732 -> 734 ;
735 [label="mse = 0.0\nsamples = 15\nvalue = 1.0"] ;
731 -> 735 ;
736 [label="mse = 0.0\nsamples = 2\nvalue = 0.0"] ;
730 -> 736 ;
}