digraph Tree {
node [shape=box] ;
0 [label="Solids <= 0.5\nmse = 0.2\nsamples = 1567\nvalue = 0.4"] ;
1 [label="ph <= 0.6\nmse = 0.2\nsamples = 1289\nvalue = 0.4"] ;
0 -> 1 [labeldistance=2.5, labelangle=45, headlabel="True"] ;
2 [label="Sulfate <= 0.8\nmse = 0.2\nsamples = 925\nvalue = 0.4"] ;
1 -> 2 ;
3 [label="Chloramines <= 0.3\nmse = 0.2\nsamples = 772\nvalue = 0.4"] ;
2 -> 3 ;
4 [label="mse = 0.0\nsamples = 8\nvalue = 1.0"] ;
3 -> 4 ;
5 [label="ph <= 0.5\nmse = 0.2\nsamples = 764\nvalue = 0.4"] ;
3 -> 5 ;
6 [label="Chloramines <= 0.5\nmse = 0.2\nsamples = 480\nvalue = 0.3"] ;
5 -> 6 ;
7 [label="ph <= 0.5\nmse = 0.2\nsamples = 100\nvalue = 0.4"] ;
6 -> 7 ;
8 [label="ph <= 0.4\nmse = 0.2\nsamples = 93\nvalue = 0.5"] ;
7 -> 8 ;
9 [label="Solids <= 0.4\nmse = 0.2\nsamples = 71\nvalue = 0.4"] ;
8 -> 9 ;
10 [label="Conductivity <= 0.2\nmse = 0.2\nsamples = 64\nvalue = 0.3"] ;
9 -> 10 ;
11 [label="mse = 0.0\nsamples = 2\nvalue = 1.0"] ;
10 -> 11 ;
12 [label="Chloramines <= 0.4\nmse = 0.2\nsamples = 62\nvalue = 0.3"] ;
10 -> 12 ;
13 [label="Organic_carbon <= 0.2\nmse = 0.2\nsamples = 60\nvalue = 0.3"] ;
12 -> 13 ;
14 [label="mse = 0.0\nsamples = 1\nvalue = 1.0"] ;
13 -> 14 ;
15 [label="Chloramines <= 0.4\nmse = 0.2\nsamples = 59\nvalue = 0.2"] ;
13 -> 15 ;
16 [label="Hardness <= 0.4\nmse = 0.2\nsamples = 26\nvalue = 0.4"] ;
15 -> 16 ;
17 [label="mse = 0.0\nsamples = 2\nvalue = 1.0"] ;
16 -> 17 ;
18 [label="Turbidity <= 0.3\nmse = 0.2\nsamples = 24\nvalue = 0.3"] ;
16 -> 18 ;
19 [label="mse = 0.0\nsamples = 3\nvalue = 1.0"] ;
18 -> 19 ;
20 [label="Turbidity <= 0.5\nmse = 0.2\nsamples = 21\nvalue = 0.2"] ;
18 -> 20 ;
21 [label="Trihalomethanes <= 0.5\nmse = 0.2\nsamples = 12\nvalue = 0.4"] ;
20 -> 21 ;
22 [label="Turbidity <= 0.5\nmse = 0.1\nsamples = 8\nvalue = 0.1"] ;
21 -> 22 ;
23 [label="mse = 0.0\nsamples = 7\nvalue = 0.0"] ;
22 -> 23 ;
24 [label="mse = 0.0\nsamples = 1\nvalue = 1.0"] ;
22 -> 24 ;
25 [label="mse = 0.0\nsamples = 4\nvalue = 1.0"] ;
21 -> 25 ;
26 [label="mse = 0.0\nsamples = 9\nvalue = 0.0"] ;
20 -> 26 ;
27 [label="Solids <= 0.1\nmse = 0.1\nsamples = 33\nvalue = 0.1"] ;
15 -> 27 ;
28 [label="mse = 0.0\nsamples = 1\nvalue = 1.0"] ;
27 -> 28 ;
29 [label="Conductivity <= 0.6\nmse = 0.1\nsamples = 32\nvalue = 0.1"] ;
27 -> 29 ;
30 [label="Sulfate <= 0.7\nmse = 0.0\nsamples = 23\nvalue = 0.0"] ;
29 -> 30 ;
31 [label="mse = 0.0\nsamples = 21\nvalue = 0.0"] ;
30 -> 31 ;
32 [label="ph <= 0.2\nmse = 0.2\nsamples = 2\nvalue = 0.3"] ;
30 -> 32 ;
33 [label="mse = 0.0\nsamples = 1\nvalue = 0.0"] ;
32 -> 33 ;
34 [label="mse = 0.0\nsamples = 1\nvalue = 1.0"] ;
32 -> 34 ;
35 [label="Trihalomethanes <= 0.4\nmse = 0.2\nsamples = 9\nvalue = 0.3"] ;
29 -> 35 ;
36 [label="mse = 0.0\nsamples = 2\nvalue = 1.0"] ;
35 -> 36 ;
37 [label="Hardness <= 0.6\nmse = 0.1\nsamples = 7\nvalue = 0.1"] ;
35 -> 37 ;
38 [label="mse = 0.0\nsamples = 6\nvalue = 0.0"] ;
37 -> 38 ;
39 [label="mse = 0.0\nsamples = 1\nvalue = 1.0"] ;
37 -> 39 ;
40 [label="mse = 0.0\nsamples = 2\nvalue = 1.0"] ;
12 -> 40 ;
41 [label="Solids <= 0.5\nmse = 0.1\nsamples = 7\nvalue = 0.9"] ;
9 -> 41 ;
42 [label="mse = 0.0\nsamples = 5\nvalue = 1.0"] ;
41 -> 42 ;
43 [label="Turbidity <= 0.4\nmse = 0.2\nsamples = 2\nvalue = 0.5"] ;
41 -> 43 ;
44 [label="mse = 0.0\nsamples = 1\nvalue = 1.0"] ;
43 -> 44 ;
45 [label="mse = 0.0\nsamples = 1\nvalue = 0.0"] ;
43 -> 45 ;
46 [label="Turbidity <= 0.6\nmse = 0.2\nsamples = 22\nvalue = 0.7"] ;
8 -> 46 ;
47 [label="Hardness <= 0.5\nmse = 0.1\nsamples = 20\nvalue = 0.8"] ;
46 -> 47 ;
48 [label="Chloramines <= 0.3\nmse = 0.2\nsamples = 8\nvalue = 0.5"] ;
47 -> 48 ;
49 [label="mse = 0.0\nsamples = 2\nvalue = 1.0"] ;
48 -> 49 ;
50 [label="Hardness <= 0.3\nmse = 0.1\nsamples = 6\nvalue = 0.2"] ;
48 -> 50 ;
51 [label="mse = 0.0\nsamples = 1\nvalue = 1.0"] ;
50 -> 51 ;
52 [label="mse = 0.0\nsamples = 5\nvalue = 0.0"] ;
50 -> 52 ;
53 [label="Hardness <= 0.7\nmse = 0.0\nsamples = 12\nvalue = 1.0"] ;
47 -> 53 ;
54 [label="mse = 0.0\nsamples = 11\nvalue = 1.0"] ;
53 -> 54 ;
55 [label="mse = 0.0\nsamples = 1\nvalue = 0.0"] ;
53 -> 55 ;
56 [label="mse = 0.0\nsamples = 2\nvalue = 0.0"] ;
46 -> 56 ;
57 [label="mse = 0.0\nsamples = 7\nvalue = 0.0"] ;
7 -> 57 ;
58 [label="Solids <= 0.4\nmse = 0.2\nsamples = 380\nvalue = 0.3"] ;
6 -> 58 ;
59 [label="Conductivity <= 0.3\nmse = 0.2\nsamples = 314\nvalue = 0.3"] ;
58 -> 59 ;
60 [label="Trihalomethanes <= 0.7\nmse = 0.2\nsamples = 51\nvalue = 0.5"] ;
59 -> 60 ;
61 [label="Hardness <= 0.6\nmse = 0.2\nsamples = 45\nvalue = 0.6"] ;
60 -> 61 ;
62 [label="Hardness <= 0.4\nmse = 0.2\nsamples = 39\nvalue = 0.7"] ;
61 -> 62 ;
63 [label="Sulfate <= 0.7\nmse = 0.1\nsamples = 6\nvalue = 0.1"] ;
62 -> 63 ;
64 [label="mse = 0.0\nsamples = 5\nvalue = 0.0"] ;
63 -> 64 ;
65 [label="mse = 0.0\nsamples = 1\nvalue = 1.0"] ;
63 -> 65 ;
66 [label="Organic_carbon <= 0.5\nmse = 0.2\nsamples = 33\nvalue = 0.8"] ;
62 -> 66 ;
67 [label="ph <= 0.5\nmse = 0.1\nsamples = 25\nvalue = 0.9"] ;
66 -> 67 ;
68 [label="Trihalomethanes <= 0.5\nmse = 0.1\nsamples = 24\nvalue = 0.9"] ;
67 -> 68 ;
69 [label="Turbidity <= 0.3\nmse = 0.0\nsamples = 16\nvalue = 1.0"] ;
68 -> 69 ;
70 [label="Turbidity <= 0.2\nmse = 0.2\nsamples = 3\nvalue = 0.8"] ;
69 -> 70 ;
71 [label="mse = 0.0\nsamples = 2\nvalue = 1.0"] ;
70 -> 71 ;
72 [label="mse = 0.0\nsamples = 1\nvalue = 0.0"] ;
70 -> 72 ;
73 [label="mse = 0.0\nsamples = 13\nvalue = 1.0"] ;
69 -> 73 ;
74 [label="ph <= 0.1\nmse = 0.2\nsamples = 8\nvalue = 0.7"] ;
68 -> 74 ;
75 [label="Chloramines <= 0.5\nmse = 0.1\nsamples = 5\nvalue = 0.9"] ;
74 -> 75 ;
76 [label="mse = 0.0\nsamples = 1\nvalue = 0.0"] ;
75 -> 76 ;
77 [label="mse = 0.0\nsamples = 4\nvalue = 1.0"] ;
75 -> 77 ;
78 [label="mse = 0.0\nsamples = 3\nvalue = 0.0"] ;
74 -> 78 ;
79 [label="mse = 0.0\nsamples = 1\nvalue = 0.0"] ;
67 -> 79 ;
80 [label="Hardness <= 0.6\nmse = 0.2\nsamples = 8\nvalue = 0.5"] ;
66 -> 80 ;
81 [label="mse = 0.0\nsamples = 5\nvalue = 0.0"] ;
80 -> 81 ;
82 [label="mse = 0.0\nsamples = 3\nvalue = 1.0"] ;
80 -> 82 ;
83 [label="Solids <= 0.4\nmse = 0.1\nsamples = 6\nvalue = 0.1"] ;
61 -> 83 ;
84 [label="mse = 0.0\nsamples = 5\nvalue = 0.0"] ;
83 -> 84 ;
85 [label="mse = 0.0\nsamples = 1\nvalue = 1.0"] ;
83 -> 85 ;
86 [label="mse = 0.0\nsamples = 6\nvalue = 0.0"] ;
60 -> 86 ;
87 [label="Trihalomethanes <= 0.8\nmse = 0.2\nsamples = 263\nvalue = 0.3"] ;
59 -> 87 ;
88 [label="Turbidity <= 0.4\nmse = 0.2\nsamples = 258\nvalue = 0.3"] ;
87 -> 88 ;
89 [label="Turbidity <= 0.4\nmse = 0.2\nsamples = 57\nvalue = 0.4"] ;
88 -> 89 ;
90 [label="Hardness <= 0.5\nmse = 0.2\nsamples = 55\nvalue = 0.4"] ;
89 -> 90 ;
91 [label="Sulfate <= 0.6\nmse = 0.2\nsamples = 23\nvalue = 0.5"] ;
90 -> 91 ;
92 [label="Solids <= 0.3\nmse = 0.2\nsamples = 11\nvalue = 0.8"] ;
91 -> 92 ;
93 [label="Chloramines <= 0.6\nmse = 0.2\nsamples = 4\nvalue = 0.2"] ;
92 -> 93 ;
94 [label="mse = 0.0\nsamples = 3\nvalue = 0.0"] ;
93 -> 94 ;
95 [label="mse = 0.0\nsamples = 1\nvalue = 1.0"] ;
93 -> 95 ;
96 [label="mse = 0.0\nsamples = 7\nvalue = 1.0"] ;
92 -> 96 ;
97 [label="ph <= 0.5\nmse = 0.2\nsamples = 12\nvalue = 0.3"] ;
91 -> 97 ;
98 [label="Solids <= 0.3\nmse = 0.1\nsamples = 10\nvalue = 0.1"] ;
97 -> 98 ;
99 [label="Hardness <= 0.4\nmse = 0.2\nsamples = 2\nvalue = 0.5"] ;
98 -> 99 ;
100 [label="mse = 0.0\nsamples = 1\nvalue = 0.0"] ;
99 -> 100 ;
101 [label="mse = 0.0\nsamples = 1\nvalue = 1.0"] ;
99 -> 101 ;
102 [label="mse = 0.0\nsamples = 8\nvalue = 0.0"] ;
98 -> 102 ;
103 [label="mse = 0.0\nsamples = 2\nvalue = 1.0"] ;
97 -> 103 ;
104 [label="Solids <= 0.3\nmse = 0.2\nsamples = 32\nvalue = 0.2"] ;
90 -> 104 ;
105 [label="Chloramines <= 0.5\nmse = 0.2\nsamples = 15\nvalue = 0.5"] ;
104 -> 105 ;
106 [label="mse = 0.0\nsamples = 4\nvalue = 1.0"] ;
105 -> 106 ;
107 [label="Trihalomethanes <= 0.5\nmse = 0.2\nsamples = 11\nvalue = 0.3"] ;
105 -> 107 ;
108 [label="Conductivity <= 0.4\nmse = 0.2\nsamples = 6\nvalue = 0.7"] ;
107 -> 108 ;
109 [label="mse = 0.0\nsamples = 2\nvalue = 0.0"] ;
108 -> 109 ;
110 [label="mse = 0.0\nsamples = 4\nvalue = 1.0"] ;
108 -> 110 ;
111 [label="mse = 0.0\nsamples = 5\nvalue = 0.0"] ;
107 -> 111 ;
112 [label="ph <= 0.5\nmse = 0.1\nsamples = 17\nvalue = 0.1"] ;
104 -> 112 ;
113 [label="mse = 0.0\nsamples = 15\nvalue = 0.0"] ;
112 -> 113 ;
114 [label="ph <= 0.5\nmse = 0.2\nsamples = 2\nvalue = 0.7"] ;
112 -> 114 ;
115 [label="mse = 0.0\nsamples = 1\nvalue = 1.0"] ;
114 -> 115 ;
116 [label="mse = 0.0\nsamples = 1\nvalue = 0.0"] ;
114 -> 116 ;
117 [label="mse = 0.0\nsamples = 2\nvalue = 1.0"] ;
89 -> 117 ;
118 [label="Hardness <= 0.8\nmse = 0.2\nsamples = 201\nvalue = 0.2"] ;
88 -> 118 ;
119 [label="Chloramines <= 0.9\nmse = 0.2\nsamples = 199\nvalue = 0.2"] ;
118 -> 119 ;
120 [label="Chloramines <= 0.5\nmse = 0.2\nsamples = 197\nvalue = 0.2"] ;
119 -> 120 ;
121 [label="Solids <= 0.2\nmse = 0.2\nsamples = 40\nvalue = 0.4"] ;
120 -> 121 ;
122 [label="Turbidity <= 0.6\nmse = 0.2\nsamples = 8\nvalue = 0.8"] ;
121 -> 122 ;
123 [label="Trihalomethanes <= 0.5\nmse = 0.1\nsamples = 7\nvalue = 0.9"] ;
122 -> 123 ;
124 [label="mse = 0.0\nsamples = 1\nvalue = 0.0"] ;
123 -> 124 ;
125 [label="mse = 0.0\nsamples = 6\nvalue = 1.0"] ;
123 -> 125 ;
126 [label="mse = 0.0\nsamples = 1\nvalue = 0.0"] ;
122 -> 126 ;
127 [label="Solids <= 0.4\nmse = 0.2\nsamples = 32\nvalue = 0.3"] ;
121 -> 127 ;
128 [label="Chloramines <= 0.5\nmse = 0.2\nsamples = 28\nvalue = 0.2"] ;
127 -> 128 ;
129 [label="Sulfate <= 0.7\nmse = 0.1\nsamples = 22\nvalue = 0.1"] ;
128 -> 129 ;
130 [label="Organic_carbon <= 0.6\nmse = 0.0\nsamples = 21\nvalue = 0.0"] ;
129 -> 130 ;
131 [label="mse = 0.0\nsamples = 19\nvalue = 0.0"] ;
130 -> 131 ;
132 [label="Turbidity <= 0.5\nmse = 0.2\nsamples = 2\nvalue = 0.5"] ;
130 -> 132 ;
133 [label="mse = 0.0\nsamples = 1\nvalue = 0.0"] ;
132 -> 133 ;
134 [label="mse = 0.0\nsamples = 1\nvalue = 1.0"] ;
132 -> 134 ;
135 [label="mse = 0.0\nsamples = 1\nvalue = 1.0"] ;
129 -> 135 ;
136 [label="Turbidity <= 0.6\nmse = 0.2\nsamples = 6\nvalue = 0.8"] ;
128 -> 136 ;
137 [label="Conductivity <= 0.8\nmse = 0.2\nsamples = 3\nvalue = 0.3"] ;
136 -> 137 ;
138 [label="mse = 0.0\nsamples = 2\nvalue = 0.0"] ;
137 -> 138 ;
139 [label="mse = 0.0\nsamples = 1\nvalue = 1.0"] ;
137 -> 139 ;
140 [label="mse = 0.0\nsamples = 3\nvalue = 1.0"] ;
136 -> 140 ;
141 [label="Turbidity <= 0.6\nmse = 0.1\nsamples = 4\nvalue = 0.8"] ;
127 -> 141 ;
142 [label="mse = 0.0\nsamples = 3\nvalue = 1.0"] ;
141 -> 142 ;
143 [label="mse = 0.0\nsamples = 1\nvalue = 0.0"] ;
141 -> 143 ;
144 [label="Trihalomethanes <= 0.6\nmse = 0.1\nsamples = 157\nvalue = 0.2"] ;
120 -> 144 ;
145 [label="Solids <= 0.2\nmse = 0.1\nsamples = 134\nvalue = 0.1"] ;
144 -> 145 ;
146 [label="Solids <= 0.2\nmse = 0.2\nsamples = 24\nvalue = 0.3"] ;
145 -> 146 ;
147 [label="Organic_carbon <= 0.5\nmse = 0.2\nsamples = 23\nvalue = 0.2"] ;
146 -> 147 ;
148 [label="Trihalomethanes <= 0.5\nmse = 0.2\nsamples = 11\nvalue = 0.5"] ;
147 -> 148 ;
149 [label="Sulfate <= 0.7\nmse = 0.2\nsamples = 7\nvalue = 0.8"] ;
148 -> 149 ;
150 [label="ph <= 0.2\nmse = 0.2\nsamples = 3\nvalue = 0.3"] ;
149 -> 150 ;
151 [label="mse = 0.0\nsamples = 1\nvalue = 1.0"] ;
150 -> 151 ;
152 [label="mse = 0.0\nsamples = 2\nvalue = 0.0"] ;
150 -> 152 ;
153 [label="mse = 0.0\nsamples = 4\nvalue = 1.0"] ;
149 -> 153 ;
154 [label="mse = 0.0\nsamples = 4\nvalue = 0.0"] ;
148 -> 154 ;
155 [label="Sulfate <= 0.3\nmse = 0.1\nsamples = 12\nvalue = 0.1"] ;
147 -> 155 ;
156 [label="Chloramines <= 0.7\nmse = 0.2\nsamples = 4\nvalue = 0.2"] ;
155 -> 156 ;
157 [label="mse = 0.0\nsamples = 3\nvalue = 0.0"] ;
156 -> 157 ;
158 [label="mse = 0.0\nsamples = 1\nvalue = 1.0"] ;
156 -> 158 ;
159 [label="mse = 0.0\nsamples = 8\nvalue = 0.0"] ;
155 -> 159 ;
160 [label="mse = 0.0\nsamples = 1\nvalue = 1.0"] ;
146 -> 160 ;
161 [label="Organic_carbon <= 0.3\nmse = 0.1\nsamples = 110\nvalue = 0.1"] ;
145 -> 161 ;
162 [label="Organic_carbon <= 0.3\nmse = 0.2\nsamples = 26\nvalue = 0.2"] ;
161 -> 162 ;
163 [label="Solids <= 0.4\nmse = 0.1\nsamples = 23\nvalue = 0.1"] ;
162 -> 163 ;
164 [label="Hardness <= 0.7\nmse = 0.1\nsamples = 22\nvalue = 0.1"] ;
163 -> 164 ;
165 [label="mse = 0.0\nsamples = 20\nvalue = 0.0"] ;
164 -> 165 ;
166 [label="Solids <= 0.2\nmse = 0.2\nsamples = 2\nvalue = 0.7"] ;
164 -> 166 ;
167 [label="mse = 0.0\nsamples = 1\nvalue = 1.0"] ;
166 -> 167 ;
168 [label="mse = 0.0\nsamples = 1\nvalue = 0.0"] ;
166 -> 168 ;
169 [label="mse = 0.0\nsamples = 1\nvalue = 1.0"] ;
163 -> 169 ;
170 [label="mse = 0.0\nsamples = 3\nvalue = 1.0"] ;
162 -> 170 ;
171 [label="Hardness <= 0.4\nmse = 0.1\nsamples = 84\nvalue = 0.1"] ;
161 -> 171 ;
172 [label="Trihalomethanes <= 0.4\nmse = 0.2\nsamples = 17\nvalue = 0.2"] ;
171 -> 172 ;
173 [label="mse = 0.0\nsamples = 3\nvalue = 1.0"] ;
172 -> 173 ;
174 [label="Hardness <= 0.4\nmse = 0.1\nsamples = 14\nvalue = 0.1"] ;
172 -> 174 ;
175 [label="Chloramines <= 0.5\nmse = 0.0\nsamples = 13\nvalue = 0.0"] ;
174 -> 175 ;
176 [label="mse = 0.0\nsamples = 1\nvalue = 1.0"] ;
175 -> 176 ;
177 [label="mse = 0.0\nsamples = 12\nvalue = 0.0"] ;
175 -> 177 ;
178 [label="mse = 0.0\nsamples = 1\nvalue = 1.0"] ;
174 -> 178 ;
179 [label="Chloramines <= 0.8\nmse = 0.0\nsamples = 67\nvalue = 0.0"] ;
171 -> 179 ;
180 [label="Conductivity <= 0.6\nmse = 0.0\nsamples = 61\nvalue = 0.0"] ;
179 -> 180 ;
181 [label="mse = 0.0\nsamples = 57\nvalue = 0.0"] ;
180 -> 181 ;
182 [label="Hardness <= 0.6\nmse = 0.1\nsamples = 4\nvalue = 0.2"] ;
180 -> 182 ;
183 [label="mse = 0.0\nsamples = 3\nvalue = 0.0"] ;
182 -> 183 ;
184 [label="mse = 0.0\nsamples = 1\nvalue = 1.0"] ;
182 -> 184 ;
185 [label="Sulfate <= 0.6\nmse = 0.2\nsamples = 6\nvalue = 0.2"] ;
179 -> 185 ;
186 [label="mse = 0.0\nsamples = 4\nvalue = 0.0"] ;
185 -> 186 ;
187 [label="mse = 0.0\nsamples = 2\nvalue = 1.0"] ;
185 -> 187 ;
188 [label="Sulfate <= 0.6\nmse = 0.2\nsamples = 23\nvalue = 0.3"] ;
144 -> 188 ;
189 [label="Turbidity <= 0.4\nmse = 0.1\nsamples = 11\nvalue = 0.1"] ;
188 -> 189 ;
190 [label="mse = 0.0\nsamples = 1\nvalue = 1.0"] ;
189 -> 190 ;
191 [label="Organic_carbon <= 0.3\nmse = 0.0\nsamples = 10\nvalue = 0.1"] ;
189 -> 191 ;
192 [label="mse = 0.0\nsamples = 1\nvalue = 1.0"] ;
191 -> 192 ;
193 [label="mse = 0.0\nsamples = 9\nvalue = 0.0"] ;
191 -> 193 ;
194 [label="Trihalomethanes <= 0.7\nmse = 0.2\nsamples = 12\nvalue = 0.6"] ;
188 -> 194 ;
195 [label="Chloramines <= 0.5\nmse = 0.1\nsamples = 7\nvalue = 0.9"] ;
194 -> 195 ;
196 [label="mse = 0.0\nsamples = 1\nvalue = 0.0"] ;
195 -> 196 ;
197 [label="mse = 0.0\nsamples = 6\nvalue = 1.0"] ;
195 -> 197 ;
198 [label="Sulfate <= 0.7\nmse = 0.1\nsamples = 5\nvalue = 0.1"] ;
194 -> 198 ;
199 [label="mse = 0.0\nsamples = 4\nvalue = 0.0"] ;
198 -> 199 ;
200 [label="mse = 0.0\nsamples = 1\nvalue = 1.0"] ;
198 -> 200 ;
201 [label="mse = 0.0\nsamples = 2\nvalue = 1.0"] ;
119 -> 201 ;
202 [label="mse = 0.0\nsamples = 2\nvalue = 1.0"] ;
118 -> 202 ;
203 [label="Chloramines <= 0.6\nmse = 0.2\nsamples = 5\nvalue = 0.8"] ;
87 -> 203 ;
204 [label="mse = 0.0\nsamples = 3\nvalue = 1.0"] ;
203 -> 204 ;
205 [label="mse = 0.0\nsamples = 2\nvalue = 0.0"] ;
203 -> 205 ;
206 [label="Organic_carbon <= 0.7\nmse = 0.1\nsamples = 66\nvalue = 0.1"] ;
58 -> 206 ;
207 [label="Hardness <= 0.7\nmse = 0.1\nsamples = 64\nvalue = 0.1"] ;
206 -> 207 ;
208 [label="Organic_carbon <= 0.2\nmse = 0.0\nsamples = 60\nvalue = 0.1"] ;
207 -> 208 ;
209 [label="mse = 0.0\nsamples = 1\nvalue = 1.0"] ;
208 -> 209 ;
210 [label="Conductivity <= 0.7\nmse = 0.0\nsamples = 59\nvalue = 0.0"] ;
208 -> 210 ;
211 [label="ph <= 0.4\nmse = 0.0\nsamples = 58\nvalue = 0.0"] ;
210 -> 211 ;
212 [label="mse = 0.0\nsamples = 48\nvalue = 0.0"] ;
211 -> 212 ;
213 [label="Chloramines <= 0.7\nmse = 0.2\nsamples = 10\nvalue = 0.2"] ;
211 -> 213 ;
214 [label="ph <= 0.4\nmse = 0.1\nsamples = 8\nvalue = 0.1"] ;
213 -> 214 ;
215 [label="mse = 0.0\nsamples = 1\nvalue = 1.0"] ;
214 -> 215 ;
216 [label="mse = 0.0\nsamples = 7\nvalue = 0.0"] ;
214 -> 216 ;
217 [label="mse = 0.0\nsamples = 2\nvalue = 1.0"] ;
213 -> 217 ;
218 [label="mse = 0.0\nsamples = 1\nvalue = 1.0"] ;
210 -> 218 ;
219 [label="ph <= 0.2\nmse = 0.2\nsamples = 4\nvalue = 0.8"] ;
207 -> 219 ;
220 [label="mse = 0.0\nsamples = 1\nvalue = 0.0"] ;
219 -> 220 ;
221 [label="mse = 0.0\nsamples = 3\nvalue = 1.0"] ;
219 -> 221 ;
222 [label="mse = 0.0\nsamples = 2\nvalue = 1.0"] ;
206 -> 222 ;
223 [label="Turbidity <= 0.6\nmse = 0.2\nsamples = 284\nvalue = 0.5"] ;
5 -> 223 ;
224 [label="ph <= 0.5\nmse = 0.2\nsamples = 197\nvalue = 0.4"] ;
223 -> 224 ;
225 [label="Organic_carbon <= 0.6\nmse = 0.2\nsamples = 41\nvalue = 0.6"] ;
224 -> 225 ;
226 [label="Conductivity <= 0.3\nmse = 0.2\nsamples = 36\nvalue = 0.7"] ;
225 -> 226 ;
227 [label="Solids <= 0.4\nmse = 0.2\nsamples = 9\nvalue = 0.3"] ;
226 -> 227 ;
228 [label="mse = 0.0\nsamples = 5\nvalue = 0.0"] ;
227 -> 228 ;
229 [label="Organic_carbon <= 0.3\nmse = 0.2\nsamples = 4\nvalue = 0.8"] ;
227 -> 229 ;
230 [label="mse = 0.0\nsamples = 1\nvalue = 0.0"] ;
229 -> 230 ;
231 [label="mse = 0.0\nsamples = 3\nvalue = 1.0"] ;
229 -> 231 ;
232 [label="Turbidity <= 0.4\nmse = 0.2\nsamples = 27\nvalue = 0.8"] ;
226 -> 232 ;
233 [label="Hardness <= 0.7\nmse = 0.1\nsamples = 11\nvalue = 0.9"] ;
232 -> 233 ;
234 [label="mse = 0.0\nsamples = 9\nvalue = 1.0"] ;
233 -> 234 ;
235 [label="mse = 0.0\nsamples = 2\nvalue = 0.0"] ;
233 -> 235 ;
236 [label="Hardness <= 0.6\nmse = 0.2\nsamples = 16\nvalue = 0.6"] ;
232 -> 236 ;
237 [label="Solids <= 0.3\nmse = 0.2\nsamples = 12\nvalue = 0.4"] ;
236 -> 237 ;
238 [label="Trihalomethanes <= 0.5\nmse = 0.2\nsamples = 6\nvalue = 0.8"] ;
237 -> 238 ;
239 [label="Trihalomethanes <= 0.4\nmse = 0.2\nsamples = 3\nvalue = 0.3"] ;
238 -> 239 ;
240 [label="mse = 0.0\nsamples = 1\nvalue = 1.0"] ;
239 -> 240 ;
241 [label="mse = 0.0\nsamples = 2\nvalue = 0.0"] ;
239 -> 241 ;
242 [label="mse = 0.0\nsamples = 3\nvalue = 1.0"] ;
238 -> 242 ;
243 [label="mse = 0.0\nsamples = 6\nvalue = 0.0"] ;
237 -> 243 ;
244 [label="mse = 0.0\nsamples = 4\nvalue = 1.0"] ;
236 -> 244 ;
245 [label="mse = 0.0\nsamples = 5\nvalue = 0.0"] ;
225 -> 245 ;
246 [label="Conductivity <= 0.5\nmse = 0.2\nsamples = 156\nvalue = 0.3"] ;
224 -> 246 ;
247 [label="ph <= 0.5\nmse = 0.2\nsamples = 93\nvalue = 0.4"] ;
246 -> 247 ;
248 [label="Organic_carbon <= 0.6\nmse = 0.2\nsamples = 44\nvalue = 0.2"] ;
247 -> 248 ;
249 [label="Solids <= 0.3\nmse = 0.1\nsamples = 31\nvalue = 0.1"] ;
248 -> 249 ;
250 [label="mse = 0.0\nsamples = 20\nvalue = 0.0"] ;
249 -> 250 ;
251 [label="Solids <= 0.3\nmse = 0.2\nsamples = 11\nvalue = 0.3"] ;
249 -> 251 ;
252 [label="mse = 0.0\nsamples = 2\nvalue = 1.0"] ;
251 -> 252 ;
253 [label="Organic_carbon <= 0.5\nmse = 0.1\nsamples = 9\nvalue = 0.1"] ;
251 -> 253 ;
254 [label="mse = 0.0\nsamples = 8\nvalue = 0.0"] ;
253 -> 254 ;
255 [label="mse = 0.0\nsamples = 1\nvalue = 1.0"] ;
253 -> 255 ;
256 [label="Trihalomethanes <= 0.4\nmse = 0.2\nsamples = 13\nvalue = 0.6"] ;
248 -> 256 ;
257 [label="mse = 0.0\nsamples = 3\nvalue = 0.0"] ;
256 -> 257 ;
258 [label="Chloramines <= 0.6\nmse = 0.2\nsamples = 10\nvalue = 0.8"] ;
256 -> 258 ;
259 [label="Hardness <= 0.3\nmse = 0.1\nsamples = 8\nvalue = 0.9"] ;
258 -> 259 ;
260 [label="mse = 0.0\nsamples = 1\nvalue = 0.0"] ;
259 -> 260 ;
261 [label="mse = 0.0\nsamples = 7\nvalue = 1.0"] ;
259 -> 261 ;
262 [label="mse = 0.0\nsamples = 2\nvalue = 0.0"] ;
258 -> 262 ;
263 [label="ph <= 0.5\nmse = 0.2\nsamples = 49\nvalue = 0.6"] ;
247 -> 263 ;
264 [label="Organic_carbon <= 0.2\nmse = 0.1\nsamples = 14\nvalue = 0.9"] ;
263 -> 264 ;
265 [label="mse = 0.0\nsamples = 1\nvalue = 0.0"] ;
264 -> 265 ;
266 [label="Turbidity <= 0.3\nmse = 0.0\nsamples = 13\nvalue = 1.0"] ;
264 -> 266 ;
267 [label="mse = 0.0\nsamples = 1\nvalue = 0.0"] ;
266 -> 267 ;
268 [label="mse = 0.0\nsamples = 12\nvalue = 1.0"] ;
266 -> 268 ;
269 [label="ph <= 0.5\nmse = 0.2\nsamples = 35\nvalue = 0.4"] ;
263 -> 269 ;
270 [label="Chloramines <= 0.3\nmse = 0.1\nsamples = 12\nvalue = 0.1"] ;
269 -> 270 ;
271 [label="mse = 0.0\nsamples = 1\nvalue = 1.0"] ;
270 -> 271 ;
272 [label="mse = 0.0\nsamples = 11\nvalue = 0.0"] ;
270 -> 272 ;
273 [label="Conductivity <= 0.3\nmse = 0.2\nsamples = 23\nvalue = 0.6"] ;
269 -> 273 ;
274 [label="Chloramines <= 0.5\nmse = 0.1\nsamples = 11\nvalue = 0.9"] ;
273 -> 274 ;
275 [label="Hardness <= 0.5\nmse = 0.2\nsamples = 2\nvalue = 0.3"] ;
274 -> 275 ;
276 [label="mse = 0.0\nsamples = 1\nvalue = 0.0"] ;
275 -> 276 ;
277 [label="mse = 0.0\nsamples = 1\nvalue = 1.0"] ;
275 -> 277 ;
278 [label="mse = 0.0\nsamples = 9\nvalue = 1.0"] ;
274 -> 278 ;
279 [label="Turbidity <= 0.5\nmse = 0.2\nsamples = 12\nvalue = 0.4"] ;
273 -> 279 ;
280 [label="Conductivity <= 0.4\nmse = 0.1\nsamples = 9\nvalue = 0.1"] ;
279 -> 280 ;
281 [label="mse = 0.0\nsamples = 8\nvalue = 0.0"] ;
280 -> 281 ;
282 [label="mse = 0.0\nsamples = 1\nvalue = 1.0"] ;
280 -> 282 ;
283 [label="mse = 0.0\nsamples = 3\nvalue = 1.0"] ;
279 -> 283 ;
284 [label="Conductivity <= 0.5\nmse = 0.2\nsamples = 63\nvalue = 0.2"] ;
246 -> 284 ;
285 [label="Hardness <= 0.6\nmse = 0.0\nsamples = 23\nvalue = 0.0"] ;
284 -> 285 ;
286 [label="mse = 0.0\nsamples = 19\nvalue = 0.0"] ;
285 -> 286 ;
287 [label="Turbidity <= 0.4\nmse = 0.1\nsamples = 4\nvalue = 0.1"] ;
285 -> 287 ;
288 [label="mse = 0.0\nsamples = 1\nvalue = 1.0"] ;
287 -> 288 ;
289 [label="mse = 0.0\nsamples = 3\nvalue = 0.0"] ;
287 -> 289 ;
290 [label="Chloramines <= 0.5\nmse = 0.2\nsamples = 40\nvalue = 0.3"] ;
284 -> 290 ;
291 [label="mse = 0.0\nsamples = 9\nvalue = 0.0"] ;
290 -> 291 ;
292 [label="Conductivity <= 0.6\nmse = 0.2\nsamples = 31\nvalue = 0.4"] ;
290 -> 292 ;
293 [label="ph <= 0.5\nmse = 0.1\nsamples = 9\nvalue = 0.8"] ;
292 -> 293 ;
294 [label="mse = 0.0\nsamples = 7\nvalue = 1.0"] ;
293 -> 294 ;
295 [label="mse = 0.0\nsamples = 2\nvalue = 0.0"] ;
293 -> 295 ;
296 [label="Solids <= 0.3\nmse = 0.2\nsamples = 22\nvalue = 0.3"] ;
292 -> 296 ;
297 [label="mse = 0.0\nsamples = 6\nvalue = 0.0"] ;
296 -> 297 ;
298 [label="Organic_carbon <= 0.6\nmse = 0.2\nsamples = 16\nvalue = 0.4"] ;
296 -> 298 ;
299 [label="Solids <= 0.3\nmse = 0.2\nsamples = 13\nvalue = 0.3"] ;
298 -> 299 ;
300 [label="mse = 0.0\nsamples = 3\nvalue = 1.0"] ;
299 -> 300 ;
301 [label="ph <= 0.5\nmse = 0.1\nsamples = 10\nvalue = 0.1"] ;
299 -> 301 ;
302 [label="Chloramines <= 0.6\nmse = 0.2\nsamples = 2\nvalue = 0.4"] ;
301 -> 302 ;
303 [label="mse = 0.0\nsamples = 1\nvalue = 0.0"] ;
302 -> 303 ;
304 [label="mse = 0.0\nsamples = 1\nvalue = 1.0"] ;
302 -> 304 ;
305 [label="mse = 0.0\nsamples = 8\nvalue = 0.0"] ;
301 -> 305 ;
306 [label="mse = 0.0\nsamples = 3\nvalue = 1.0"] ;
298 -> 306 ;
307 [label="Sulfate <= 0.7\nmse = 0.2\nsamples = 87\nvalue = 0.6"] ;
223 -> 307 ;
308 [label="Organic_carbon <= 0.3\nmse = 0.2\nsamples = 82\nvalue = 0.7"] ;
307 -> 308 ;
309 [label="mse = 0.0\nsamples = 10\nvalue = 1.0"] ;
308 -> 309 ;
310 [label="ph <= 0.5\nmse = 0.2\nsamples = 72\nvalue = 0.6"] ;
308 -> 310 ;
311 [label="Hardness <= 0.6\nmse = 0.2\nsamples = 29\nvalue = 0.8"] ;
310 -> 311 ;
312 [label="Hardness <= 0.5\nmse = 0.1\nsamples = 26\nvalue = 0.9"] ;
311 -> 312 ;
313 [label="Conductivity <= 0.2\nmse = 0.2\nsamples = 3\nvalue = 0.3"] ;
312 -> 313 ;
314 [label="mse = 0.0\nsamples = 1\nvalue = 1.0"] ;
313 -> 314 ;
315 [label="mse = 0.0\nsamples = 2\nvalue = 0.0"] ;
313 -> 315 ;
316 [label="Turbidity <= 0.6\nmse = 0.1\nsamples = 23\nvalue = 0.9"] ;
312 -> 316 ;
317 [label="mse = 0.0\nsamples = 13\nvalue = 1.0"] ;
316 -> 317 ;
318 [label="Turbidity <= 0.7\nmse = 0.2\nsamples = 10\nvalue = 0.8"] ;
316 -> 318 ;
319 [label="Hardness <= 0.6\nmse = 0.2\nsamples = 4\nvalue = 0.4"] ;
318 -> 319 ;
320 [label="mse = 0.0\nsamples = 2\nvalue = 0.0"] ;
319 -> 320 ;
321 [label="mse = 0.0\nsamples = 2\nvalue = 1.0"] ;
319 -> 321 ;
322 [label="mse = 0.0\nsamples = 6\nvalue = 1.0"] ;
318 -> 322 ;
323 [label="mse = 0.0\nsamples = 3\nvalue = 0.0"] ;
311 -> 323 ;
324 [label="Conductivity <= 0.5\nmse = 0.2\nsamples = 43\nvalue = 0.5"] ;
310 -> 324 ;
325 [label="Organic_carbon <= 0.4\nmse = 0.2\nsamples = 27\nvalue = 0.7"] ;
324 -> 325 ;
326 [label="ph <= 0.5\nmse = 0.2\nsamples = 11\nvalue = 0.3"] ;
325 -> 326 ;
327 [label="mse = 0.0\nsamples = 5\nvalue = 0.0"] ;
326 -> 327 ;
328 [label="Conductivity <= 0.4\nmse = 0.2\nsamples = 6\nvalue = 0.6"] ;
326 -> 328 ;
329 [label="mse = 0.0\nsamples = 3\nvalue = 0.0"] ;
328 -> 329 ;
330 [label="mse = 0.0\nsamples = 3\nvalue = 1.0"] ;
328 -> 330 ;
331 [label="Trihalomethanes <= 0.7\nmse = 0.1\nsamples = 16\nvalue = 0.9"] ;
325 -> 331 ;
332 [label="Chloramines <= 0.4\nmse = 0.0\nsamples = 15\nvalue = 1.0"] ;
331 -> 332 ;
333 [label="Turbidity <= 0.7\nmse = 0.2\nsamples = 2\nvalue = 0.7"] ;
332 -> 333 ;
334 [label="mse = 0.0\nsamples = 1\nvalue = 1.0"] ;
333 -> 334 ;
335 [label="mse = 0.0\nsamples = 1\nvalue = 0.0"] ;
333 -> 335 ;
336 [label="mse = 0.0\nsamples = 13\nvalue = 1.0"] ;
332 -> 336 ;
337 [label="mse = 0.0\nsamples = 1\nvalue = 0.0"] ;
331 -> 337 ;
338 [label="ph <= 0.5\nmse = 0.1\nsamples = 16\nvalue = 0.1"] ;
324 -> 338 ;
339 [label="mse = 0.0\nsamples = 13\nvalue = 0.0"] ;
338 -> 339 ;
340 [label="Solids <= 0.4\nmse = 0.2\nsamples = 3\nvalue = 0.8"] ;
338 -> 340 ;
341 [label="mse = 0.0\nsamples = 2\nvalue = 1.0"] ;
340 -> 341 ;
342 [label="mse = 0.0\nsamples = 1\nvalue = 0.0"] ;
340 -> 342 ;
343 [label="mse = 0.0\nsamples = 5\nvalue = 0.0"] ;
307 -> 343 ;
344 [label="Hardness <= 0.6\nmse = 0.2\nsamples = 153\nvalue = 0.6"] ;
2 -> 344 ;
345 [label="Solids <= 0.3\nmse = 0.2\nsamples = 111\nvalue = 0.5"] ;
344 -> 345 ;
346 [label="Sulfate <= 0.8\nmse = 0.2\nsamples = 47\nvalue = 0.6"] ;
345 -> 346 ;
347 [label="Organic_carbon <= 0.6\nmse = 0.2\nsamples = 15\nvalue = 0.3"] ;
346 -> 347 ;
348 [label="Trihalomethanes <= 0.7\nmse = 0.2\nsamples = 12\nvalue = 0.2"] ;
347 -> 348 ;
349 [label="Trihalomethanes <= 0.3\nmse = 0.1\nsamples = 10\nvalue = 0.1"] ;
348 -> 349 ;
350 [label="mse = 0.0\nsamples = 1\nvalue = 1.0"] ;
349 -> 350 ;
351 [label="Turbidity <= 0.6\nmse = 0.1\nsamples = 9\nvalue = 0.1"] ;
349 -> 351 ;
352 [label="mse = 0.0\nsamples = 8\nvalue = 0.0"] ;
351 -> 352 ;
353 [label="mse = 0.0\nsamples = 1\nvalue = 1.0"] ;
351 -> 353 ;
354 [label="mse = 0.0\nsamples = 2\nvalue = 1.0"] ;
348 -> 354 ;
355 [label="mse = 0.0\nsamples = 3\nvalue = 1.0"] ;
347 -> 355 ;
356 [label="Organic_carbon <= 0.5\nmse = 0.2\nsamples = 32\nvalue = 0.8"] ;
346 -> 356 ;
357 [label="Conductivity <= 0.2\nmse = 0.1\nsamples = 26\nvalue = 0.9"] ;
356 -> 357 ;
358 [label="Solids <= 0.1\nmse = 0.2\nsamples = 2\nvalue = 0.3"] ;
357 -> 358 ;
359 [label="mse = 0.0\nsamples = 1\nvalue = 1.0"] ;
358 -> 359 ;
360 [label="mse = 0.0\nsamples = 1\nvalue = 0.0"] ;
358 -> 360 ;
361 [label="Turbidity <= 0.2\nmse = 0.1\nsamples = 24\nvalue = 0.9"] ;
357 -> 361 ;
362 [label="mse = 0.0\nsamples = 1\nvalue = 0.0"] ;
361 -> 362 ;
363 [label="Solids <= 0.3\nmse = 0.1\nsamples = 23\nvalue = 0.9"] ;
361 -> 363 ;
364 [label="Trihalomethanes <= 0.7\nmse = 0.0\nsamples = 20\nvalue = 1.0"] ;
363 -> 364 ;
365 [label="mse = 0.0\nsamples = 17\nvalue = 1.0"] ;
364 -> 365 ;
366 [label="Hardness <= 0.5\nmse = 0.2\nsamples = 3\nvalue = 0.7"] ;
364 -> 366 ;
367 [label="mse = 0.0\nsamples = 1\nvalue = 0.0"] ;
366 -> 367 ;
368 [label="mse = 0.0\nsamples = 2\nvalue = 1.0"] ;
366 -> 368 ;
369 [label="Solids <= 0.3\nmse = 0.2\nsamples = 3\nvalue = 0.7"] ;
363 -> 369 ;
370 [label="mse = 0.0\nsamples = 1\nvalue = 0.0"] ;
369 -> 370 ;
371 [label="mse = 0.0\nsamples = 2\nvalue = 1.0"] ;
369 -> 371 ;
372 [label="Chloramines <= 0.5\nmse = 0.2\nsamples = 6\nvalue = 0.3"] ;
356 -> 372 ;
373 [label="mse = 0.0\nsamples = 2\nvalue = 1.0"] ;
372 -> 373 ;
374 [label="mse = 0.0\nsamples = 4\nvalue = 0.0"] ;
372 -> 374 ;
375 [label="ph <= 0.2\nmse = 0.2\nsamples = 64\nvalue = 0.4"] ;
345 -> 375 ;
376 [label="Chloramines <= 0.7\nmse = 0.1\nsamples = 22\nvalue = 0.2"] ;
375 -> 376 ;
377 [label="Conductivity <= 0.3\nmse = 0.1\nsamples = 20\nvalue = 0.1"] ;
376 -> 377 ;
378 [label="mse = 0.0\nsamples = 2\nvalue = 1.0"] ;
377 -> 378 ;
379 [label="Hardness <= 0.6\nmse = 0.0\nsamples = 18\nvalue = 0.1"] ;
377 -> 379 ;
380 [label="Turbidity <= 0.7\nmse = 0.0\nsamples = 17\nvalue = 0.0"] ;
379 -> 380 ;
381 [label="mse = 0.0\nsamples = 16\nvalue = 0.0"] ;
380 -> 381 ;
382 [label="mse = 0.0\nsamples = 1\nvalue = 1.0"] ;
380 -> 382 ;
383 [label="mse = 0.0\nsamples = 1\nvalue = 1.0"] ;
379 -> 383 ;
384 [label="mse = 0.0\nsamples = 2\nvalue = 1.0"] ;
376 -> 384 ;
385 [label="ph <= 0.5\nmse = 0.2\nsamples = 42\nvalue = 0.5"] ;
375 -> 385 ;
386 [label="Hardness <= 0.5\nmse = 0.2\nsamples = 23\nvalue = 0.8"] ;
385 -> 386 ;
387 [label="mse = 0.0\nsamples = 11\nvalue = 1.0"] ;
386 -> 387 ;
388 [label="Chloramines <= 0.6\nmse = 0.2\nsamples = 12\nvalue = 0.5"] ;
386 -> 388 ;
389 [label="Turbidity <= 0.5\nmse = 0.2\nsamples = 8\nvalue = 0.2"] ;
388 -> 389 ;
390 [label="mse = 0.0\nsamples = 1\nvalue = 1.0"] ;
389 -> 390 ;
391 [label="Solids <= 0.3\nmse = 0.1\nsamples = 7\nvalue = 0.1"] ;
389 -> 391 ;
392 [label="mse = 0.0\nsamples = 1\nvalue = 1.0"] ;
391 -> 392 ;
393 [label="mse = 0.0\nsamples = 6\nvalue = 0.0"] ;
391 -> 393 ;
394 [label="mse = 0.0\nsamples = 4\nvalue = 1.0"] ;
388 -> 394 ;
395 [label="Sulfate <= 0.8\nmse = 0.1\nsamples = 19\nvalue = 0.2"] ;
385 -> 395 ;
396 [label="Chloramines <= 0.6\nmse = 0.2\nsamples = 4\nvalue = 0.5"] ;
395 -> 396 ;
397 [label="mse = 0.0\nsamples = 2\nvalue = 0.0"] ;
396 -> 397 ;
398 [label="mse = 0.0\nsamples = 2\nvalue = 1.0"] ;
396 -> 398 ;
399 [label="Trihalomethanes <= 0.4\nmse = 0.1\nsamples = 15\nvalue = 0.1"] ;
395 -> 399 ;
400 [label="Conductivity <= 0.4\nmse = 0.2\nsamples = 4\nvalue = 0.3"] ;
399 -> 400 ;
401 [label="mse = 0.0\nsamples = 2\nvalue = 0.0"] ;
400 -> 401 ;
402 [label="mse = 0.0\nsamples = 2\nvalue = 1.0"] ;
400 -> 402 ;
403 [label="mse = 0.0\nsamples = 11\nvalue = 0.0"] ;
399 -> 403 ;
404 [label="Solids <= 0.4\nmse = 0.1\nsamples = 42\nvalue = 0.9"] ;
344 -> 404 ;
405 [label="Turbidity <= 0.7\nmse = 0.1\nsamples = 36\nvalue = 0.9"] ;
404 -> 405 ;
406 [label="Chloramines <= 0.3\nmse = 0.0\nsamples = 35\nvalue = 0.9"] ;
405 -> 406 ;
407 [label="Trihalomethanes <= 0.5\nmse = 0.2\nsamples = 2\nvalue = 0.5"] ;
406 -> 407 ;
408 [label="mse = 0.0\nsamples = 1\nvalue = 1.0"] ;
407 -> 408 ;
409 [label="mse = 0.0\nsamples = 1\nvalue = 0.0"] ;
407 -> 409 ;
410 [label="Trihalomethanes <= 0.7\nmse = 0.0\nsamples = 33\nvalue = 1.0"] ;
406 -> 410 ;
411 [label="Hardness <= 0.8\nmse = 0.0\nsamples = 31\nvalue = 1.0"] ;
410 -> 411 ;
412 [label="mse = 0.0\nsamples = 28\nvalue = 1.0"] ;
411 -> 412 ;
413 [label="Trihalomethanes <= 0.6\nmse = 0.2\nsamples = 3\nvalue = 0.8"] ;
411 -> 413 ;
414 [label="mse = 0.0\nsamples = 1\nvalue = 0.0"] ;
413 -> 414 ;
415 [label="mse = 0.0\nsamples = 2\nvalue = 1.0"] ;
413 -> 415 ;
416 [label="Organic_carbon <= 0.4\nmse = 0.2\nsamples = 2\nvalue = 0.7"] ;
410 -> 416 ;
417 [label="mse = 0.0\nsamples = 1\nvalue = 1.0"] ;
416 -> 417 ;
418 [label="mse = 0.0\nsamples = 1\nvalue = 0.0"] ;
416 -> 418 ;
419 [label="mse = 0.0\nsamples = 1\nvalue = 0.0"] ;
405 -> 419 ;
420 [label="Turbidity <= 0.4\nmse = 0.2\nsamples = 6\nvalue = 0.3"] ;
404 -> 420 ;
421 [label="mse = 0.0\nsamples = 2\nvalue = 1.0"] ;
420 -> 421 ;
422 [label="mse = 0.0\nsamples = 4\nvalue = 0.0"] ;
420 -> 422 ;
423 [label="Chloramines <= 0.7\nmse = 0.2\nsamples = 364\nvalue = 0.3"] ;
1 -> 423 ;
424 [label="Hardness <= 0.5\nmse = 0.2\nsamples = 316\nvalue = 0.2"] ;
423 -> 424 ;
425 [label="Organic_carbon <= 0.6\nmse = 0.2\nsamples = 47\nvalue = 0.4"] ;
424 -> 425 ;
426 [label="Sulfate <= 0.7\nmse = 0.2\nsamples = 37\nvalue = 0.6"] ;
425 -> 426 ;
427 [label="Solids <= 0.2\nmse = 0.2\nsamples = 29\nvalue = 0.7"] ;
426 -> 427 ;
428 [label="Trihalomethanes <= 0.4\nmse = 0.1\nsamples = 7\nvalue = 0.2"] ;
427 -> 428 ;
429 [label="Chloramines <= 0.6\nmse = 0.2\nsamples = 2\nvalue = 0.7"] ;
428 -> 429 ;
430 [label="mse = 0.0\nsamples = 1\nvalue = 1.0"] ;
429 -> 430 ;
431 [label="mse = 0.0\nsamples = 1\nvalue = 0.0"] ;
429 -> 431 ;
432 [label="mse = 0.0\nsamples = 5\nvalue = 0.0"] ;
428 -> 432 ;
433 [label="Chloramines <= 0.3\nmse = 0.1\nsamples = 22\nvalue = 0.9"] ;
427 -> 433 ;
434 [label="mse = 0.0\nsamples = 1\nvalue = 0.0"] ;
433 -> 434 ;
435 [label="Conductivity <= 0.7\nmse = 0.1\nsamples = 21\nvalue = 0.9"] ;
433 -> 435 ;
436 [label="ph <= 0.7\nmse = 0.0\nsamples = 20\nvalue = 1.0"] ;
435 -> 436 ;
437 [label="mse = 0.0\nsamples = 16\nvalue = 1.0"] ;
436 -> 437 ;
438 [label="Conductivity <= 0.5\nmse = 0.1\nsamples = 4\nvalue = 0.8"] ;
436 -> 438 ;
439 [label="mse = 0.0\nsamples = 3\nvalue = 1.0"] ;
438 -> 439 ;
440 [label="mse = 0.0\nsamples = 1\nvalue = 0.0"] ;
438 -> 440 ;
441 [label="mse = 0.0\nsamples = 1\nvalue = 0.0"] ;
435 -> 441 ;
442 [label="Turbidity <= 0.2\nmse = 0.1\nsamples = 8\nvalue = 0.1"] ;
426 -> 442 ;
443 [label="mse = 0.0\nsamples = 1\nvalue = 1.0"] ;
442 -> 443 ;
444 [label="mse = 0.0\nsamples = 7\nvalue = 0.0"] ;
442 -> 444 ;
445 [label="mse = 0.0\nsamples = 10\nvalue = 0.0"] ;
425 -> 445 ;
446 [label="Hardness <= 0.6\nmse = 0.2\nsamples = 269\nvalue = 0.2"] ;
424 -> 446 ;
447 [label="Solids <= 0.2\nmse = 0.1\nsamples = 114\nvalue = 0.1"] ;
446 -> 447 ;
448 [label="Organic_carbon <= 0.3\nmse = 0.0\nsamples = 38\nvalue = 0.0"] ;
447 -> 448 ;
449 [label="Solids <= 0.2\nmse = 0.2\nsamples = 4\nvalue = 0.2"] ;
448 -> 449 ;
450 [label="mse = 0.0\nsamples = 3\nvalue = 0.0"] ;
449 -> 450 ;
451 [label="mse = 0.0\nsamples = 1\nvalue = 1.0"] ;
449 -> 451 ;
452 [label="mse = 0.0\nsamples = 34\nvalue = 0.0"] ;
448 -> 452 ;
453 [label="Solids <= 0.3\nmse = 0.2\nsamples = 76\nvalue = 0.2"] ;
447 -> 453 ;
454 [label="Turbidity <= 0.3\nmse = 0.2\nsamples = 13\nvalue = 0.5"] ;
453 -> 454 ;
455 [label="mse = 0.0\nsamples = 3\nvalue = 1.0"] ;
454 -> 455 ;
456 [label="Hardness <= 0.5\nmse = 0.2\nsamples = 10\nvalue = 0.4"] ;
454 -> 456 ;
457 [label="mse = 0.0\nsamples = 2\nvalue = 1.0"] ;
456 -> 457 ;
458 [label="ph <= 0.6\nmse = 0.1\nsamples = 8\nvalue = 0.2"] ;
456 -> 458 ;
459 [label="mse = 0.0\nsamples = 5\nvalue = 0.0"] ;
458 -> 459 ;
460 [label="Conductivity <= 0.3\nmse = 0.2\nsamples = 3\nvalue = 0.7"] ;
458 -> 460 ;
461 [label="mse = 0.0\nsamples = 1\nvalue = 0.0"] ;
460 -> 461 ;
462 [label="mse = 0.0\nsamples = 2\nvalue = 1.0"] ;
460 -> 462 ;
463 [label="Sulfate <= 0.8\nmse = 0.1\nsamples = 63\nvalue = 0.1"] ;
453 -> 463 ;
464 [label="Conductivity <= 0.5\nmse = 0.1\nsamples = 59\nvalue = 0.1"] ;
463 -> 464 ;
465 [label="Solids <= 0.3\nmse = 0.1\nsamples = 51\nvalue = 0.1"] ;
464 -> 465 ;
466 [label="Solids <= 0.3\nmse = 0.2\nsamples = 4\nvalue = 0.3"] ;
465 -> 466 ;
467 [label="mse = 0.0\nsamples = 2\nvalue = 0.0"] ;
466 -> 467 ;
468 [label="mse = 0.0\nsamples = 2\nvalue = 1.0"] ;
466 -> 468 ;
469 [label="Trihalomethanes <= 0.6\nmse = 0.0\nsamples = 47\nvalue = 0.0"] ;
465 -> 469 ;
470 [label="mse = 0.0\nsamples = 37\nvalue = 0.0"] ;
469 -> 470 ;
471 [label="Hardness <= 0.5\nmse = 0.2\nsamples = 10\nvalue = 0.2"] ;
469 -> 471 ;
472 [label="Organic_carbon <= 0.3\nmse = 0.1\nsamples = 8\nvalue = 0.1"] ;
471 -> 472 ;
473 [label="Sulfate <= 0.7\nmse = 0.2\nsamples = 2\nvalue = 0.5"] ;
472 -> 473 ;
474 [label="mse = 0.0\nsamples = 1\nvalue = 1.0"] ;
473 -> 474 ;
475 [label="mse = 0.0\nsamples = 1\nvalue = 0.0"] ;
473 -> 475 ;
476 [label="mse = 0.0\nsamples = 6\nvalue = 0.0"] ;
472 -> 476 ;
477 [label="mse = 0.0\nsamples = 2\nvalue = 1.0"] ;
471 -> 477 ;
478 [label="Conductivity <= 0.6\nmse = 0.2\nsamples = 8\nvalue = 0.4"] ;
464 -> 478 ;
479 [label="mse = 0.0\nsamples = 4\nvalue = 1.0"] ;
478 -> 479 ;
480 [label="mse = 0.0\nsamples = 4\nvalue = 0.0"] ;
478 -> 480 ;
481 [label="Organic_carbon <= 0.4\nmse = 0.2\nsamples = 4\nvalue = 0.5"] ;
463 -> 481 ;
482 [label="mse = 0.0\nsamples = 2\nvalue = 0.0"] ;
481 -> 482 ;
483 [label="mse = 0.0\nsamples = 2\nvalue = 1.0"] ;
481 -> 483 ;
484 [label="Conductivity <= 0.7\nmse = 0.2\nsamples = 155\nvalue = 0.3"] ;
446 -> 484 ;
485 [label="ph <= 0.6\nmse = 0.2\nsamples = 149\nvalue = 0.2"] ;
484 -> 485 ;
486 [label="Conductivity <= 0.4\nmse = 0.2\nsamples = 50\nvalue = 0.4"] ;
485 -> 486 ;
487 [label="Chloramines <= 0.5\nmse = 0.2\nsamples = 23\nvalue = 0.6"] ;
486 -> 487 ;
488 [label="Sulfate <= 0.8\nmse = 0.1\nsamples = 10\nvalue = 0.9"] ;
487 -> 488 ;
489 [label="mse = 0.0\nsamples = 8\nvalue = 1.0"] ;
488 -> 489 ;
490 [label="mse = 0.0\nsamples = 2\nvalue = 0.0"] ;
488 -> 490 ;
491 [label="Organic_carbon <= 0.6\nmse = 0.2\nsamples = 13\nvalue = 0.3"] ;
487 -> 491 ;
492 [label="Sulfate <= 0.8\nmse = 0.1\nsamples = 7\nvalue = 0.1"] ;
491 -> 492 ;
493 [label="mse = 0.0\nsamples = 6\nvalue = 0.0"] ;
492 -> 493 ;
494 [label="mse = 0.0\nsamples = 1\nvalue = 1.0"] ;
492 -> 494 ;
495 [label="Chloramines <= 0.6\nmse = 0.2\nsamples = 6\nvalue = 0.7"] ;
491 -> 495 ;
496 [label="mse = 0.0\nsamples = 3\nvalue = 1.0"] ;
495 -> 496 ;
497 [label="Organic_carbon <= 0.7\nmse = 0.2\nsamples = 3\nvalue = 0.3"] ;
495 -> 497 ;
498 [label="mse = 0.0\nsamples = 2\nvalue = 0.0"] ;
497 -> 498 ;
499 [label="mse = 0.0\nsamples = 1\nvalue = 1.0"] ;
497 -> 499 ;
500 [label="Turbidity <= 0.4\nmse = 0.2\nsamples = 27\nvalue = 0.3"] ;
486 -> 500 ;
501 [label="Turbidity <= 0.3\nmse = 0.2\nsamples = 7\nvalue = 0.6"] ;
500 -> 501 ;
502 [label="Trihalomethanes <= 0.8\nmse = 0.2\nsamples = 4\nvalue = 0.2"] ;
501 -> 502 ;
503 [label="mse = 0.0\nsamples = 3\nvalue = 0.0"] ;
502 -> 503 ;
504 [label="mse = 0.0\nsamples = 1\nvalue = 1.0"] ;
502 -> 504 ;
505 [label="mse = 0.0\nsamples = 3\nvalue = 1.0"] ;
501 -> 505 ;
506 [label="ph <= 0.6\nmse = 0.1\nsamples = 20\nvalue = 0.2"] ;
500 -> 506 ;
507 [label="Solids <= 0.2\nmse = 0.1\nsamples = 19\nvalue = 0.1"] ;
506 -> 507 ;
508 [label="Chloramines <= 0.6\nmse = 0.2\nsamples = 6\nvalue = 0.3"] ;
507 -> 508 ;
509 [label="mse = 0.0\nsamples = 4\nvalue = 0.0"] ;
508 -> 509 ;
510 [label="mse = 0.0\nsamples = 2\nvalue = 1.0"] ;
508 -> 510 ;
511 [label="mse = 0.0\nsamples = 13\nvalue = 0.0"] ;
507 -> 511 ;
512 [label="mse = 0.0\nsamples = 1\nvalue = 1.0"] ;
506 -> 512 ;
513 [label="Hardness <= 0.6\nmse = 0.1\nsamples = 99\nvalue = 0.2"] ;
485 -> 513 ;
514 [label="Trihalomethanes <= 0.6\nmse = 0.2\nsamples = 5\nvalue = 0.7"] ;
513 -> 514 ;
515 [label="mse = 0.0\nsamples = 2\nvalue = 1.0"] ;
514 -> 515 ;
516 [label="Sulfate <= 0.7\nmse = 0.2\nsamples = 3\nvalue = 0.2"] ;
514 -> 516 ;
517 [label="mse = 0.0\nsamples = 2\nvalue = 0.0"] ;
516 -> 517 ;
518 [label="mse = 0.0\nsamples = 1\nvalue = 1.0"] ;
516 -> 518 ;
519 [label="Solids <= 0.5\nmse = 0.1\nsamples = 94\nvalue = 0.1"] ;
513 -> 519 ;
520 [label="Turbidity <= 0.1\nmse = 0.1\nsamples = 93\nvalue = 0.1"] ;
519 -> 520 ;
521 [label="mse = 0.0\nsamples = 1\nvalue = 1.0"] ;
520 -> 521 ;
522 [label="Turbidity <= 0.8\nmse = 0.1\nsamples = 92\nvalue = 0.1"] ;
520 -> 522 ;
523 [label="Sulfate <= 0.7\nmse = 0.1\nsamples = 91\nvalue = 0.1"] ;
522 -> 523 ;
524 [label="Solids <= 0.3\nmse = 0.1\nsamples = 54\nvalue = 0.1"] ;
523 -> 524 ;
525 [label="Organic_carbon <= 0.6\nmse = 0.0\nsamples = 40\nvalue = 0.0"] ;
524 -> 525 ;
526 [label="mse = 0.0\nsamples = 33\nvalue = 0.0"] ;
525 -> 526 ;
527 [label="Hardness <= 0.7\nmse = 0.1\nsamples = 7\nvalue = 0.1"] ;
525 -> 527 ;
528 [label="mse = 0.0\nsamples = 6\nvalue = 0.0"] ;
527 -> 528 ;
529 [label="mse = 0.0\nsamples = 1\nvalue = 1.0"] ;
527 -> 529 ;
530 [label="Solids <= 0.4\nmse = 0.1\nsamples = 14\nvalue = 0.2"] ;
524 -> 530 ;
531 [label="mse = 0.0\nsamples = 2\nvalue = 1.0"] ;
530 -> 531 ;
532 [label="Chloramines <= 0.6\nmse = 0.0\nsamples = 12\nvalue = 0.0"] ;
530 -> 532 ;
533 [label="mse = 0.0\nsamples = 11\nvalue = 0.0"] ;
532 -> 533 ;
534 [label="mse = 0.0\nsamples = 1\nvalue = 1.0"] ;
532 -> 534 ;
535 [label="Sulfate <= 0.7\nmse = 0.2\nsamples = 37\nvalue = 0.2"] ;
523 -> 535 ;
536 [label="Organic_carbon <= 0.5\nmse = 0.2\nsamples = 16\nvalue = 0.4"] ;
535 -> 536 ;
537 [label="Organic_carbon <= 0.4\nmse = 0.2\nsamples = 8\nvalue = 0.6"] ;
536 -> 537 ;
538 [label="Conductivity <= 0.6\nmse = 0.2\nsamples = 5\nvalue = 0.2"] ;
537 -> 538 ;
539 [label="mse = 0.0\nsamples = 4\nvalue = 0.0"] ;
538 -> 539 ;
540 [label="mse = 0.0\nsamples = 1\nvalue = 1.0"] ;
538 -> 540 ;
541 [label="mse = 0.0\nsamples = 3\nvalue = 1.0"] ;
537 -> 541 ;
542 [label="Conductivity <= 0.6\nmse = 0.1\nsamples = 8\nvalue = 0.1"] ;
536 -> 542 ;
543 [label="mse = 0.0\nsamples = 7\nvalue = 0.0"] ;
542 -> 543 ;
544 [label="mse = 0.0\nsamples = 1\nvalue = 1.0"] ;
542 -> 544 ;
545 [label="Organic_carbon <= 0.3\nmse = 0.0\nsamples = 21\nvalue = 0.0"] ;
535 -> 545 ;
546 [label="Hardness <= 0.8\nmse = 0.2\nsamples = 2\nvalue = 0.5"] ;
545 -> 546 ;
547 [label="mse = 0.0\nsamples = 1\nvalue = 1.0"] ;
546 -> 547 ;
548 [label="mse = 0.0\nsamples = 1\nvalue = 0.0"] ;
546 -> 548 ;
549 [label="mse = 0.0\nsamples = 19\nvalue = 0.0"] ;
545 -> 549 ;
550 [label="mse = 0.0\nsamples = 1\nvalue = 1.0"] ;
522 -> 550 ;
551 [label="mse = 0.0\nsamples = 1\nvalue = 1.0"] ;
519 -> 551 ;
552 [label="Conductivity <= 0.8\nmse = 0.2\nsamples = 6\nvalue = 0.8"] ;
484 -> 552 ;
553 [label="mse = 0.0\nsamples = 5\nvalue = 1.0"] ;
552 -> 553 ;
554 [label="mse = 0.0\nsamples = 1\nvalue = 0.0"] ;
552 -> 554 ;
555 [label="Solids <= 0.3\nmse = 0.2\nsamples = 48\nvalue = 0.6"] ;
423 -> 555 ;
556 [label="Organic_carbon <= 0.5\nmse = 0.2\nsamples = 34\nvalue = 0.5"] ;
555 -> 556 ;
557 [label="Sulfate <= 0.7\nmse = 0.2\nsamples = 27\nvalue = 0.6"] ;
556 -> 557 ;
558 [label="Solids <= 0.3\nmse = 0.1\nsamples = 15\nvalue = 0.9"] ;
557 -> 558 ;
559 [label="mse = 0.0\nsamples = 14\nvalue = 1.0"] ;
558 -> 559 ;
560 [label="mse = 0.0\nsamples = 1\nvalue = 0.0"] ;
558 -> 560 ;
561 [label="Trihalomethanes <= 0.5\nmse = 0.2\nsamples = 12\nvalue = 0.3"] ;
557 -> 561 ;
562 [label="ph <= 0.6\nmse = 0.2\nsamples = 5\nvalue = 0.6"] ;
561 -> 562 ;
563 [label="mse = 0.0\nsamples = 2\nvalue = 0.0"] ;
562 -> 563 ;
564 [label="mse = 0.0\nsamples = 3\nvalue = 1.0"] ;
562 -> 564 ;
565 [label="Turbidity <= 0.2\nmse = 0.1\nsamples = 7\nvalue = 0.1"] ;
561 -> 565 ;
566 [label="mse = 0.0\nsamples = 1\nvalue = 1.0"] ;
565 -> 566 ;
567 [label="mse = 0.0\nsamples = 6\nvalue = 0.0"] ;
565 -> 567 ;
568 [label="Conductivity <= 0.3\nmse = 0.1\nsamples = 7\nvalue = 0.1"] ;
556 -> 568 ;
569 [label="mse = 0.0\nsamples = 1\nvalue = 1.0"] ;
568 -> 569 ;
570 [label="mse = 0.0\nsamples = 6\nvalue = 0.0"] ;
568 -> 570 ;
571 [label="Chloramines <= 0.7\nmse = 0.1\nsamples = 14\nvalue = 0.9"] ;
555 -> 571 ;
572 [label="mse = 0.0\nsamples = 1\nvalue = 0.0"] ;
571 -> 572 ;
573 [label="mse = 0.0\nsamples = 13\nvalue = 1.0"] ;
571 -> 573 ;
574 [label="Sulfate <= 0.6\nmse = 0.2\nsamples = 278\nvalue = 0.5"] ;
0 -> 574 [labeldistance=2.5, labelangle=-45, headlabel="False"] ;
575 [label="Turbidity <= 0.6\nmse = 0.2\nsamples = 112\nvalue = 0.6"] ;
574 -> 575 ;
576 [label="Sulfate <= 0.2\nmse = 0.2\nsamples = 89\nvalue = 0.7"] ;
575 -> 576 ;
577 [label="Organic_carbon <= 0.4\nmse = 0.2\nsamples = 54\nvalue = 0.6"] ;
576 -> 577 ;
578 [label="Solids <= 0.6\nmse = 0.0\nsamples = 10\nvalue = 1.0"] ;
577 -> 578 ;
579 [label="mse = 0.0\nsamples = 9\nvalue = 1.0"] ;
578 -> 579 ;
580 [label="mse = 0.0\nsamples = 1\nvalue = 0.0"] ;
578 -> 580 ;
581 [label="Trihalomethanes <= 0.7\nmse = 0.2\nsamples = 44\nvalue = 0.5"] ;
577 -> 581 ;
582 [label="Hardness <= 0.5\nmse = 0.2\nsamples = 36\nvalue = 0.3"] ;
581 -> 582 ;
583 [label="mse = 0.0\nsamples = 11\nvalue = 0.0"] ;
582 -> 583 ;
584 [label="Hardness <= 0.5\nmse = 0.2\nsamples = 25\nvalue = 0.5"] ;
582 -> 584 ;
585 [label="Chloramines <= 0.4\nmse = 0.1\nsamples = 7\nvalue = 0.9"] ;
584 -> 585 ;
586 [label="mse = 0.0\nsamples = 1\nvalue = 0.0"] ;
585 -> 586 ;
587 [label="mse = 0.0\nsamples = 6\nvalue = 1.0"] ;
585 -> 587 ;
588 [label="Chloramines <= 0.5\nmse = 0.2\nsamples = 18\nvalue = 0.3"] ;
584 -> 588 ;
589 [label="Solids <= 0.6\nmse = 0.2\nsamples = 6\nvalue = 0.8"] ;
588 -> 589 ;
590 [label="mse = 0.0\nsamples = 3\nvalue = 1.0"] ;
589 -> 590 ;
591 [label="Solids <= 0.8\nmse = 0.2\nsamples = 3\nvalue = 0.3"] ;
589 -> 591 ;
592 [label="mse = 0.0\nsamples = 2\nvalue = 0.0"] ;
591 -> 592 ;
593 [label="mse = 0.0\nsamples = 1\nvalue = 1.0"] ;
591 -> 593 ;
594 [label="ph <= 0.6\nmse = 0.1\nsamples = 12\nvalue = 0.1"] ;
588 -> 594 ;
595 [label="mse = 0.0\nsamples = 10\nvalue = 0.0"] ;
594 -> 595 ;
596 [label="mse = 0.0\nsamples = 2\nvalue = 1.0"] ;
594 -> 596 ;
597 [label="Conductivity <= 0.3\nmse = 0.1\nsamples = 8\nvalue = 0.9"] ;
581 -> 597 ;
598 [label="mse = 0.0\nsamples = 1\nvalue = 0.0"] ;
597 -> 598 ;
599 [label="Organic_carbon <= 0.4\nmse = 0.1\nsamples = 7\nvalue = 0.9"] ;
597 -> 599 ;
600 [label="Conductivity <= 0.5\nmse = 0.2\nsamples = 2\nvalue = 0.7"] ;
599 -> 600 ;
601 [label="mse = 0.0\nsamples = 1\nvalue = 0.0"] ;
600 -> 601 ;
602 [label="mse = 0.0\nsamples = 1\nvalue = 1.0"] ;
600 -> 602 ;
603 [label="mse = 0.0\nsamples = 5\nvalue = 1.0"] ;
599 -> 603 ;
604 [label="Trihalomethanes <= 0.7\nmse = 0.1\nsamples = 35\nvalue = 0.9"] ;
576 -> 604 ;
605 [label="Turbidity <= 0.3\nmse = 0.0\nsamples = 32\nvalue = 1.0"] ;
604 -> 605 ;
606 [label="Turbidity <= 0.1\nmse = 0.2\nsamples = 2\nvalue = 0.7"] ;
605 -> 606 ;
607 [label="mse = 0.0\nsamples = 1\nvalue = 1.0"] ;
606 -> 607 ;
608 [label="mse = 0.0\nsamples = 1\nvalue = 0.0"] ;
606 -> 608 ;
609 [label="mse = 0.0\nsamples = 30\nvalue = 1.0"] ;
605 -> 609 ;
610 [label="ph <= 0.6\nmse = 0.2\nsamples = 3\nvalue = 0.8"] ;
604 -> 610 ;
611 [label="mse = 0.0\nsamples = 1\nvalue = 0.0"] ;
610 -> 611 ;
612 [label="mse = 0.0\nsamples = 2\nvalue = 1.0"] ;
610 -> 612 ;
613 [label="Solids <= 0.5\nmse = 0.2\nsamples = 23\nvalue = 0.3"] ;
575 -> 613 ;
614 [label="mse = 0.0\nsamples = 2\nvalue = 1.0"] ;
613 -> 614 ;
615 [label="Trihalomethanes <= 0.5\nmse = 0.2\nsamples = 21\nvalue = 0.3"] ;
613 -> 615 ;
616 [label="Chloramines <= 0.6\nmse = 0.1\nsamples = 7\nvalue = 0.1"] ;
615 -> 616 ;
617 [label="mse = 0.0\nsamples = 6\nvalue = 0.0"] ;
616 -> 617 ;
618 [label="mse = 0.0\nsamples = 1\nvalue = 1.0"] ;
616 -> 618 ;
619 [label="Trihalomethanes <= 0.5\nmse = 0.2\nsamples = 14\nvalue = 0.4"] ;
615 -> 619 ;
620 [label="mse = 0.0\nsamples = 4\nvalue = 1.0"] ;
619 -> 620 ;
621 [label="Chloramines <= 0.4\nmse = 0.1\nsamples = 10\nvalue = 0.2"] ;
619 -> 621 ;
622 [label="ph <= 0.6\nmse = 0.2\nsamples = 3\nvalue = 0.7"] ;
621 -> 622 ;
623 [label="mse = 0.0\nsamples = 2\nvalue = 1.0"] ;
622 -> 623 ;
624 [label="mse = 0.0\nsamples = 1\nvalue = 0.0"] ;
622 -> 624 ;
625 [label="Trihalomethanes <= 0.7\nmse = 0.1\nsamples = 7\nvalue = 0.1"] ;
621 -> 625 ;
626 [label="mse = 0.0\nsamples = 6\nvalue = 0.0"] ;
625 -> 626 ;
627 [label="mse = 0.0\nsamples = 1\nvalue = 1.0"] ;
625 -> 627 ;
628 [label="Chloramines <= 0.7\nmse = 0.2\nsamples = 166\nvalue = 0.4"] ;
574 -> 628 ;
629 [label="Chloramines <= 0.6\nmse = 0.2\nsamples = 159\nvalue = 0.4"] ;
628 -> 629 ;
630 [label="Conductivity <= 0.5\nmse = 0.2\nsamples = 132\nvalue = 0.4"] ;
629 -> 630 ;
631 [label="Hardness <= 0.7\nmse = 0.2\nsamples = 69\nvalue = 0.3"] ;
630 -> 631 ;
632 [label="Organic_carbon <= 0.3\nmse = 0.2\nsamples = 65\nvalue = 0.3"] ;
631 -> 632 ;
633 [label="Solids <= 0.7\nmse = 0.1\nsamples = 4\nvalue = 0.9"] ;
632 -> 633 ;
634 [label="mse = 0.0\nsamples = 3\nvalue = 1.0"] ;
633 -> 634 ;
635 [label="mse = 0.0\nsamples = 1\nvalue = 0.0"] ;
633 -> 635 ;
636 [label="Chloramines <= 0.2\nmse = 0.2\nsamples = 61\nvalue = 0.2"] ;
632 -> 636 ;
637 [label="mse = 0.0\nsamples = 2\nvalue = 1.0"] ;
636 -> 637 ;
638 [label="ph <= 0.7\nmse = 0.2\nsamples = 59\nvalue = 0.2"] ;
636 -> 638 ;
639 [label="Hardness <= 0.5\nmse = 0.2\nsamples = 56\nvalue = 0.2"] ;
638 -> 639 ;
640 [label="Conductivity <= 0.2\nmse = 0.0\nsamples = 23\nvalue = 0.0"] ;
639 -> 640 ;
641 [label="ph <= 0.2\nmse = 0.2\nsamples = 3\nvalue = 0.3"] ;
640 -> 641 ;
642 [label="mse = 0.0\nsamples = 1\nvalue = 1.0"] ;
641 -> 642 ;
643 [label="mse = 0.0\nsamples = 2\nvalue = 0.0"] ;
641 -> 643 ;
644 [label="mse = 0.0\nsamples = 20\nvalue = 0.0"] ;
640 -> 644 ;
645 [label="Chloramines <= 0.6\nmse = 0.2\nsamples = 33\nvalue = 0.3"] ;
639 -> 645 ;
646 [label="Conductivity <= 0.3\nmse = 0.2\nsamples = 25\nvalue = 0.5"] ;
645 -> 646 ;
647 [label="mse = 0.0\nsamples = 5\nvalue = 1.0"] ;
646 -> 647 ;
648 [label="Sulfate <= 0.7\nmse = 0.2\nsamples = 20\nvalue = 0.4"] ;
646 -> 648 ;
649 [label="Chloramines <= 0.6\nmse = 0.2\nsamples = 17\nvalue = 0.2"] ;
648 -> 649 ;
650 [label="Chloramines <= 0.4\nmse = 0.1\nsamples = 16\nvalue = 0.1"] ;
649 -> 650 ;
651 [label="Hardness <= 0.6\nmse = 0.2\nsamples = 3\nvalue = 0.8"] ;
650 -> 651 ;
652 [label="mse = 0.0\nsamples = 2\nvalue = 1.0"] ;
651 -> 652 ;
653 [label="mse = 0.0\nsamples = 1\nvalue = 0.0"] ;
651 -> 653 ;
654 [label="mse = 0.0\nsamples = 13\nvalue = 0.0"] ;
650 -> 654 ;
655 [label="mse = 0.0\nsamples = 1\nvalue = 1.0"] ;
649 -> 655 ;
656 [label="mse = 0.0\nsamples = 3\nvalue = 1.0"] ;
648 -> 656 ;
657 [label="mse = 0.0\nsamples = 8\nvalue = 0.0"] ;
645 -> 657 ;
658 [label="Sulfate <= 0.7\nmse = 0.2\nsamples = 3\nvalue = 0.8"] ;
638 -> 658 ;
659 [label="mse = 0.0\nsamples = 2\nvalue = 1.0"] ;
658 -> 659 ;
660 [label="mse = 0.0\nsamples = 1\nvalue = 0.0"] ;
658 -> 660 ;
661 [label="mse = 0.0\nsamples = 4\nvalue = 1.0"] ;
631 -> 661 ;
662 [label="Conductivity <= 0.5\nmse = 0.2\nsamples = 63\nvalue = 0.6"] ;
630 -> 662 ;
663 [label="Turbidity <= 0.3\nmse = 0.1\nsamples = 12\nvalue = 0.9"] ;
662 -> 663 ;
664 [label="mse = 0.0\nsamples = 1\nvalue = 0.0"] ;
663 -> 664 ;
665 [label="Solids <= 0.5\nmse = 0.0\nsamples = 11\nvalue = 1.0"] ;
663 -> 665 ;
666 [label="mse = 0.0\nsamples = 1\nvalue = 0.0"] ;
665 -> 666 ;
667 [label="mse = 0.0\nsamples = 10\nvalue = 1.0"] ;
665 -> 667 ;
668 [label="Hardness <= 0.5\nmse = 0.2\nsamples = 51\nvalue = 0.5"] ;
662 -> 668 ;
669 [label="Trihalomethanes <= 0.7\nmse = 0.2\nsamples = 26\nvalue = 0.7"] ;
668 -> 669 ;
670 [label="Turbidity <= 0.6\nmse = 0.1\nsamples = 23\nvalue = 0.8"] ;
669 -> 670 ;
671 [label="Hardness <= 0.4\nmse = 0.1\nsamples = 18\nvalue = 0.9"] ;
670 -> 671 ;
672 [label="Organic_carbon <= 0.7\nmse = 0.2\nsamples = 2\nvalue = 0.5"] ;
671 -> 672 ;
673 [label="mse = 0.0\nsamples = 1\nvalue = 0.0"] ;
672 -> 673 ;
674 [label="mse = 0.0\nsamples = 1\nvalue = 1.0"] ;
672 -> 674 ;
675 [label="Conductivity <= 0.6\nmse = 0.0\nsamples = 16\nvalue = 1.0"] ;
671 -> 675 ;
676 [label="mse = 0.0\nsamples = 14\nvalue = 1.0"] ;
675 -> 676 ;
677 [label="Chloramines <= 0.4\nmse = 0.2\nsamples = 2\nvalue = 0.7"] ;
675 -> 677 ;
678 [label="mse = 0.0\nsamples = 1\nvalue = 1.0"] ;
677 -> 678 ;
679 [label="mse = 0.0\nsamples = 1\nvalue = 0.0"] ;
677 -> 679 ;
680 [label="Turbidity <= 0.7\nmse = 0.2\nsamples = 5\nvalue = 0.4"] ;
670 -> 680 ;
681 [label="mse = 0.0\nsamples = 3\nvalue = 0.0"] ;
680 -> 681 ;
682 [label="mse = 0.0\nsamples = 2\nvalue = 1.0"] ;
680 -> 682 ;
683 [label="mse = 0.0\nsamples = 3\nvalue = 0.0"] ;
669 -> 683 ;
684 [label="Organic_carbon <= 0.6\nmse = 0.2\nsamples = 25\nvalue = 0.3"] ;
668 -> 684 ;
685 [label="Sulfate <= 0.8\nmse = 0.1\nsamples = 18\nvalue = 0.1"] ;
684 -> 685 ;
686 [label="Solids <= 0.6\nmse = 0.0\nsamples = 17\nvalue = 0.0"] ;
685 -> 686 ;
687 [label="mse = 0.0\nsamples = 14\nvalue = 0.0"] ;
686 -> 687 ;
688 [label="Solids <= 0.7\nmse = 0.2\nsamples = 3\nvalue = 0.3"] ;
686 -> 688 ;
689 [label="mse = 0.0\nsamples = 1\nvalue = 1.0"] ;
688 -> 689 ;
690 [label="mse = 0.0\nsamples = 2\nvalue = 0.0"] ;
688 -> 690 ;
691 [label="mse = 0.0\nsamples = 1\nvalue = 1.0"] ;
685 -> 691 ;
692 [label="Sulfate <= 0.7\nmse = 0.2\nsamples = 7\nvalue = 0.8"] ;
684 -> 692 ;
693 [label="mse = 0.0\nsamples = 2\nvalue = 0.0"] ;
692 -> 693 ;
694 [label="mse = 0.0\nsamples = 5\nvalue = 1.0"] ;
692 -> 694 ;
695 [label="Hardness <= 0.4\nmse = 0.1\nsamples = 27\nvalue = 0.1"] ;
629 -> 695 ;
696 [label="mse = 0.0\nsamples = 2\nvalue = 1.0"] ;
695 -> 696 ;
697 [label="Hardness <= 0.7\nmse = 0.0\nsamples = 25\nvalue = 0.0"] ;
695 -> 697 ;
698 [label="mse = 0.0\nsamples = 23\nvalue = 0.0"] ;
697 -> 698 ;
699 [label="ph <= 0.4\nmse = 0.2\nsamples = 2\nvalue = 0.5"] ;
697 -> 699 ;
700 [label="mse = 0.0\nsamples = 1\nvalue = 0.0"] ;
699 -> 700 ;
701 [label="mse = 0.0\nsamples = 1\nvalue = 1.0"] ;
699 -> 701 ;
702 [label="Organic_carbon <= 0.3\nmse = 0.1\nsamples = 7\nvalue = 0.9"] ;
628 -> 702 ;
703 [label="mse = 0.0\nsamples = 1\nvalue = 0.0"] ;
702 -> 703 ;
704 [label="mse = 0.0\nsamples = 6\nvalue = 1.0"] ;
702 -> 704 ;
}